tree
version=v4
num_class=1
num_tree_per_iteration=1
label_index=0
max_feature_idx=9
objective=regression
feature_names=Grad RSSI Link_UP(s) Drop_Count Fwd_Count Drop_Rate(%) Pin(%) Neighbor_Count Link_Stability Load_Per_Neighbor
feature_infos=[1:3] [-90:-41] [0:4680] [0:53] [1:198] [0:33.299999999999997] [5:100] [1:17] [0:8.4512670413000706] [0.076923076923076927:30.166666666666668]
tree_sizes=1360 1380 1379 1371 1369 1375 1364 1370 1376 1371 1369 1370 1371 1368 1376 1370 1364 1373 1376 1370 1367 1374 1377 1380 1370 1375 1378 1373 1375 1395 1381 1383 1395 1374 1386 1387 1394 1396 1384 1393 1315 1379 1308 1392 1398 1394 1402 1402 1396 1395 1401 1398 1392 1239 1325 1407 1310 1315 1230 1411 1140 1388 1242 1233 1246 1231 1236 1236 1248 1242 1247 1153 1060 1433 1153 1422 1142 1411 1148 1163 1161 1075 1164 1155 1236 1163 1156 1155 903 1154 1422 1167 1155 1320 897 1162 1436 1335 1256 1153 1418 1416 744 1154 1250 1165 1248 1416 1074 986 1441 1300 1236 748 1425 1254 1165 1321 1402 1421 1251 1424 1159 1238 931 1157 922 1162 1165 1417 1416 918 1249 1324 1166 1403 1323 1342 1331 1348 747 1168 1239 1251 1167 1245 1336 1087

Tree=0
num_leaves=15
num_cat=0
split_feature=2 6 6 5 5 6 2 2 5 5 5 5 2 4
split_gain=5.02241e+07 1.46398e+07 3.23408e+06 2.14408e+06 2.02272e+06 1.12551e+06 841268 695894 595915 341759 268447 219204 8127.3 1443.11
threshold=298.50000000000006 29.950000000000003 20.450000000000003 3.7500000000000004 16.350000000000005 20.450000000000003 668.50000000000011 97.500000000000014 24.250000000000004 11.900000000000002 21.950000000000003 23.600000000000005 917.50000000000011 16.500000000000004
decision_type=2 2 2 2 2 2 2 2 2 2 2 2 2 2
left_child=1 5 12 6 7 10 -4 -3 -6 -5 -1 -7 -2 -14
right_child=2 4 3 9 8 11 -8 -9 -10 -11 -12 -13 13 -15
leaf_value=112.2561380027269 92.517556027314996 89.40632888937327 78.288977804452969 79.403711057512197 91.11942440392346 100.1974954836645 75.303691890909178 84.463821798296777 96.791503197430046 83.739125843559222 119.24373464150048 107.9876828309783 91.171844733098425 90.427207573497938
leaf_weight=101 25 321 697 261 340 53 4535 422 182 210 54 41 36 31
leaf_count=101 25 321 697 261 340 53 4535 422 182 210 54 41 36 31
internal_value=79.7965 92.7707 76.4068 76.1668 89.2805 110.502 75.7014 86.5991 93.097 81.3367 114.691 103.595 91.2866 90.8273
internal_weight=7309 1514 5795 5703 1265 249 5232 743 522 471 155 94 92 67
internal_count=7309 1514 5795 5703 1265 249 5232 743 522 471 155 94 92 67
is_linear=0
shrinkage=1


Tree=1
num_leaves=15
num_cat=0
split_feature=8 6 5 6 5 8 6 5 8 8 5 5 5 5
split_gain=4.25968e+07 1.13199e+07 2.92171e+06 2.83415e+06 1.46384e+06 966856 952631 443897 381763 329137 229109 185931 93767.8 47199.6
threshold=5.5626010191691115 29.950000000000003 8.5000000000000018 20.450000000000003 16.350000000000005 6.3792743602756765 20.450000000000003 24.250000000000004 4.2121001622835372 6.4591213688611626 24.250000000000004 20.300000000000004 21.500000000000004 16.350000000000005
decision_type=2 2 2 2 2 2 2 2 2 2 2 2 2 2
left_child=1 6 3 -2 8 -5 10 -6 -3 12 -1 -8 -4 -11
right_child=2 4 9 5 7 -7 11 -9 -10 13 -12 -13 -14 -15
leaf_value=30.011352170548349 10.570931482729705 9.5732289605034726 5.9516128510974706 -0.6057808632700189 11.001596656773277 -3.9641564930858375 18.557287866210938 16.251698543140723 5.4912495418738869 0.93224438685291222 36.626296586017219 25.687769109552555 10.840440673828125 3.248943312327067
leaf_weight=106 92 225 105 618 293 4888 50 159 421 106 49 44 33 120
leaf_count=106 92 225 105 618 293 4888 50 159 421 106 49 44 33 120
internal_value=-3.58799e-08 12.8488 -2.90294 -3.35453 9.35636 -3.58721 28.2491 12.8484 6.91299 4.04216 32.1025 21.895 7.12068 2.16235
internal_weight=7309 1347 5962 5598 1098 5506 249 452 646 364 155 94 138 226
internal_count=7309 1347 5962 5598 1098 5506 249 452 646 364 155 94 138 226
is_linear=0
shrinkage=0.08


Tree=2
num_leaves=15
num_cat=0
split_feature=2 6 6 3 3 2 6 2 2 2 3 3 2 4
split_gain=3.60539e+07 9.58117e+06 2.24348e+06 2.2042e+06 1.09882e+06 831335 806307 650447 472880 290677 141743 137406 6878.95 1221.45
threshold=259.50000000000006 29.950000000000003 20.450000000000003 1.0000000180025095e-35 1.0000000180025095e-35 540.00000000000011 20.450000000000003 653.00000000000011 131.50000000000003 125.50000000000001 1.5000000000000002 1.5000000000000002 917.50000000000011 16.500000000000004
decision_type=2 2 2 2 2 2 2 2 2 2 2 2 2 2
left_child=1 6 12 5 9 -4 10 -5 -6 -3 -1 -8 -2 -14
right_child=2 4 3 7 8 -7 11 -9 -10 -11 -12 -13 13 -15
leaf_value=27.310172496977309 10.857721179199219 7.1275889462178235 -0.37025237650487297 5.7817494199362152 13.096495315301613 -3.7596652476738535 17.084723939286899 0.016341918511717929 8.6453125049865331 2.9528146000149884 32.165719423965669 23.202002888131652 9.6196666293674049 8.934600534746723
leaf_weight=84 25 329 514 166 305 4680 47 510 306 158 71 47 36 31
leaf_count=84 25 329 514 166 305 4680 47 510 306 158 71 47 36 31
internal_value=3.33513e-08 11.8209 -2.6707 -2.86498 8.60785 -3.42425 25.9891 1.43211 10.8673 5.77314 29.5343 20.1434 9.72526 9.3027
internal_weight=7309 1347 5962 5870 1098 5194 249 676 611 487 155 94 92 67
internal_count=7309 1347 5962 5870 1098 5194 249 676 611 487 155 94 92 67
is_linear=0
shrinkage=0.08


Tree=3
num_leaves=15
num_cat=0
split_feature=2 6 6 5 5 6 2 2 5 5 5 5 2 9
split_gain=3.0565e+07 8.71533e+06 1.95053e+06 1.53575e+06 1.27228e+06 682458 570420 420496 399591 253013 190129 139082 5822.34 801.766
threshold=290.50000000000006 29.950000000000003 20.450000000000003 3.7500000000000004 16.350000000000005 20.450000000000003 726.50000000000011 97.500000000000014 23.300000000000004 13.800000000000002 15.700000000000001 24.250000000000004 917.50000000000011 1.4058823529411766
decision_type=2 2 2 2 2 2 2 2 2 2 2 2 2 2
left_child=1 5 12 6 7 10 -4 -3 -6 -5 -1 -7 -2 -14
right_child=2 4 3 9 8 11 -8 -9 -10 -11 -12 -13 13 -15
leaf_value=20.625542348225913 9.9891032478332527 7.5163835937880279 -1.2726371310135494 -0.09184927745769135 8.8668030707338517 15.883427327473958 -3.5562553920260265 3.6397087286489982 13.526875616914483 3.5822626090614715 28.370854203318824 22.107324554443359 8.7929695325020027 8.231869921003069
leaf_weight=24 25 321 832 278 321 54 4414 405 186 211 131 40 39 28
leaf_count=24 25 321 832 278 321 54 4414 405 186 211 131 40 39 28
internal_value=6.33107e-08 10.2582 -2.60901 -2.79439 7.50128 23.91 -3.19408 5.35378 10.5764 1.4935 27.1716 18.5319 8.94724 8.55848
internal_weight=7309 1482 5827 5735 1233 249 5246 726 507 489 155 94 92 67
internal_count=7309 1482 5827 5735 1233 249 5246 726 507 489 155 94 92 67
is_linear=0
shrinkage=0.08


Tree=4
num_leaves=15
num_cat=0
split_feature=2 6 5 6 5 2 6 2 2 5 2 5 5 5
split_gain=2.59293e+07 6.84162e+06 1.82985e+06 1.72172e+06 960265 609140 577837 369985 193422 188307 120819 98600 57385.8 36423.4
threshold=259.50000000000006 29.950000000000003 8.5000000000000018 20.450000000000003 21.500000000000004 490.50000000000006 19.250000000000004 97.500000000000014 555.00000000000011 24.250000000000004 97.500000000000014 24.250000000000004 21.950000000000003 16.350000000000005
decision_type=2 2 2 2 2 2 2 2 2 2 2 2 2 2
left_child=1 6 3 -2 7 -5 9 -3 12 -1 -6 -8 -4 -10
right_child=2 4 8 5 10 -7 11 -9 13 -11 -12 -13 -14 -15
leaf_value=23.337619160353533 8.2314574800366938 7.9680399029071509 4.790630790308902 0.055117612183772896 15.520144002945697 -3.0512942681895789 15.401992557713243 4.7459562352942246 0.79452905293379983 29.578990885416665 11.153628696410124 20.370567904385652 8.7546399516444051 2.7840158943001554
leaf_weight=99 92 429 95 439 61 5067 61 487 107 45 121 44 31 131
leaf_count=99 92 429 95 439 61 5067 61 487 107 45 121 44 31 131
internal_value=2.72686e-08 10.0246 -2.26488 -2.62226 7.30955 -2.80362 21.9972 6.25499 3.23139 25.288 12.6171 17.4841 5.7659 1.88958
internal_weight=7309 1347 5962 5598 1098 5506 249 916 364 144 182 105 126 238
internal_count=7309 1347 5962 5598 1098 5506 249 916 364 144 182 105 126 238
is_linear=0
shrinkage=0.08


Tree=5
num_leaves=15
num_cat=0
split_feature=8 6 5 6 5 8 6 5 8 8 5 5 5 4
split_gain=2.19466e+07 5.79075e+06 1.55068e+06 1.45962e+06 885227 533383 496965 319272 214226 176226 150956 102279 52960.7 30831.2
threshold=5.5626010191691115 29.950000000000003 8.1500000000000004 20.450000000000003 9.9000000000000021 6.4134576134407473 20.450000000000003 24.250000000000004 4.1190041246092024 6.4591213688611626 15.700000000000001 23.600000000000005 21.950000000000003 5.5000000000000009
decision_type=2 2 2 2 2 2 2 2 2 2 2 2 2 2
left_child=1 6 3 -2 8 -5 10 -6 -3 12 -1 -8 -4 -11
right_child=2 4 9 5 7 -7 11 -9 -10 13 -12 -13 -14 -15
leaf_value=17.187846043904621 7.5729409056124481 6.6959216238839279 4.2990638333614744 -0.47458016904029338 7.7454384792886355 -2.8820231212925109 13.327054852899517 11.978819518659099 3.2852808500723167 2.470730946575602 24.089290007380129 18.648338116901677 8.0542688578944066 0.66471062500213007
leaf_weight=24 92 175 107 671 403 4819 53 159 361 120 131 41 31 122
leaf_count=24 92 175 107 671 403 4819 53 159 361 120 131 41 31 122
internal_value=2.33518e-08 9.22267 -2.08369 -2.42032 6.72479 -2.58778 20.2374 8.94314 4.39883 2.86122 23.0207 15.648 5.14262 1.56026
internal_weight=7309 1347 5962 5582 1098 5490 249 562 536 380 155 94 138 242
internal_count=7309 1347 5962 5582 1098 5490 249 562 536 380 155 94 138 242
is_linear=0
shrinkage=0.08


Tree=6
num_leaves=15
num_cat=0
split_feature=2 6 5 6 5 2 6 5 5 5 2 2 5 5
split_gain=1.86335e+07 4.29679e+06 2.17638e+06 1.23275e+06 702771 568921 408608 228440 177323 145087 112229 95435.4 66681.2 15608
threshold=197.50000000000003 29.950000000000003 8.5000000000000018 20.450000000000003 13.400000000000002 485.50000000000006 19.250000000000004 18.850000000000005 25.350000000000005 24.250000000000004 60.500000000000007 759.00000000000011 28.250000000000004 27.050000000000004
decision_type=2 2 2 2 2 2 2 2 2 2 2 2 2 2
left_child=1 6 3 -2 10 -5 9 11 -6 -1 -3 -4 -8 -9
right_child=2 4 7 5 8 -7 12 13 -10 -11 -12 -13 -14 -15
leaf_value=19.798292821767379 6.9584799128706729 6.3621381346384682 3.8421656479254001 0.30475344966631385 8.329989566667706 -2.5760199954795793 13.460805195640114 6.1060555013020839 12.168045861586085 25.285528971354164 3.8993263770538626 1.4213151827820067 17.718775024414064 8.3761070178803951
leaf_weight=98 93 192 205 480 282 5105 68 36 106 45 309 212 36 42
leaf_count=98 93 192 205 480 282 5105 68 36 106 45 309 212 36 42
internal_value=-1.01107e-08 9.41601 -1.7328 -2.17632 6.8226 -2.32843 18.7502 3.3547 9.37853 21.525 4.84316 2.61142 14.9347 7.32839
internal_weight=7309 1136 6173 5678 889 5585 247 495 388 143 501 417 104 78
internal_count=7309 1136 6173 5678 889 5585 247 495 388 143 501 417 104 78
is_linear=0
shrinkage=0.08


Tree=7
num_leaves=15
num_cat=0
split_feature=2 6 5 6 5 2 6 5 5 5 2 6 5 2
split_gain=1.57714e+07 3.6368e+06 1.84777e+06 1.03407e+06 599419 518217 351073 172063 150961 106870 89595.4 81384.8 68759.6 47845.7
threshold=197.50000000000003 29.950000000000003 11.900000000000002 26.150000000000002 9.9000000000000021 744.50000000000011 20.450000000000003 25.350000000000005 19.550000000000001 27.850000000000005 60.500000000000007 19.250000000000004 20.300000000000004 759.00000000000011
decision_type=2 2 2 2 2 2 2 2 2 2 2 2 2 2
left_child=1 6 3 11 10 -5 9 -6 13 -1 -3 -2 -8 -4
right_child=2 4 8 5 7 -7 12 -9 -10 -11 -12 -13 -14 -15
leaf_value=18.282275423616976 6.7286779785156252 5.6512767333984382 3.7050563915355785 -0.53586924330972263 7.4911471345561509 -2.4909387376339542 11.307708970673231 11.194602292618661 6.7697788268250303 22.979940270712209 3.338981826176282 2.0028455591201784 15.664570562189276 1.7859165616698613
leaf_weight=111 86 175 185 1071 331 4571 49 106 77 43 277 32 44 151
leaf_count=111 86 175 185 1071 331 4571 49 106 77 43 277 32 44 151
internal_value=3.33275e-09 8.66273 -1.59418 -1.9648 6.27679 -2.11982 17.2502 8.38947 3.57477 19.594 4.23423 5.4471 13.369 2.84259
internal_weight=7309 1136 6173 5760 889 5642 247 437 413 154 452 118 93 336
internal_count=7309 1136 6173 5760 889 5642 247 437 413 154 452 118 93 336
is_linear=0
shrinkage=0.08


Tree=8
num_leaves=15
num_cat=0
split_feature=2 1 1 5 2 2 2 2 5 2 0 5 1 2
split_gain=1.33915e+07 3.8805e+06 699362 631922 313644 307314 285856 121109 112660 68431 64834.5 57624.2 23848.5 20640.3
threshold=316.00000000000006 -76.499999999999986 -74.999999999999986 20.300000000000004 140.50000000000003 60.500000000000007 924.50000000000011 140.50000000000003 16.850000000000005 458.50000000000006 1.5000000000000002 10.600000000000001 -84.499999999999986 555.00000000000011
decision_type=2 2 2 2 2 2 2 2 2 2 2 2 2 2
left_child=1 5 11 4 -3 8 9 -5 -1 -4 -8 12 -2 -13
right_child=2 3 6 7 -6 -7 10 -9 -10 -11 -12 13 -14 -15
leaf_value=14.498656373687139 1.1923689301671654 5.1626798941248619 0.14330389862203421 10.705019814402787 2.3696618359273063 7.4700374873991944 -2.9607343712766663 6.9245075107977643 17.90116372162441 -1.2992269704375468 -2.1980251701337208 3.91600426197052 -0.30456408255028 1.720628936106622
leaf_weight=151 116 556 267 97 479 31 929 123 106 994 3072 32 165 191
leaf_count=151 116 556 267 97 479 31 929 123 106 994 3072 32 165 191
internal_value=-2.79047e-09 6.61958 -1.77142 4.6977 3.87007 14.9944 -2.04409 8.59137 15.902 -0.99379 -2.37512 1.07542 0.313387 2.03566
internal_weight=7309 1543 5766 1255 1035 288 5262 220 257 1261 4001 504 281 223
internal_count=7309 1543 5766 1255 1035 288 5262 220 257 1261 4001 504 281 223
is_linear=0
shrinkage=0.08


Tree=9
num_leaves=15
num_cat=0
split_feature=2 6 5 6 5 2 6 2 6 2 2 5 5 5
split_gain=1.13406e+07 2.75099e+06 1.2334e+06 922376 495640 340875 299257 186665 161467 153461 83887.3 82396.5 56715.4 50195.2
threshold=215.50000000000003 29.950000000000003 3.7500000000000004 35.350000000000009 9.9000000000000021 879.00000000000011 20.450000000000003 555.00000000000011 19.250000000000004 72.500000000000014 42.500000000000007 15.700000000000001 22.800000000000001 26.800000000000001
decision_type=2 2 2 2 2 2 2 2 2 2 2 2 2 2
left_child=1 6 3 8 10 -5 11 12 -2 -6 -3 -1 -4 -8
right_child=2 4 7 5 9 -7 13 -9 -10 -11 -12 -13 -14 -15
leaf_value=12.384341669497283 6.3431401487838386 5.0643620426493481 2.9878261243669613 -0.83805147029388527 9.1396704699542077 -2.346742664041888 9.5426504421234135 0.84270193478070543 1.5463012502041269 6.0289045918467616 2.7022792266429154 17.575989128287514 5.9695659461388217 13.339889179951436
leaf_weight=23 86 133 190 1260 148 4005 56 423 94 323 348 131 52 37
leaf_count=23 86 133 190 1260 148 4005 56 423 94 323 348 131 52 37
internal_value=-6.37806e-09 7.11361 -1.39594 -1.79317 5.16172 -1.98569 14.6367 1.85649 3.83812 7.00639 3.35541 16.8006 3.62853 11.0534
internal_weight=7309 1199 6110 5445 952 5265 247 665 180 471 481 154 242 93
internal_count=7309 1199 6110 5445 952 5265 247 665 180 471 481 154 242 93
is_linear=0
shrinkage=0.08


Tree=10
num_leaves=15
num_cat=0
split_feature=8 1 6 1 5 6 8 8 6 8 6 5 5 8
split_gain=9.63209e+06 2.80667e+06 721770 579053 488714 468745 228150 194507 109740 104208 65147.7 53275.6 44464.7 7736.8
threshold=5.7587226177009461 -76.499999999999986 32.350000000000009 -76.499999999999986 18.850000000000005 20.450000000000003 4.886575525404063 6.7799212618106788 19.250000000000004 4.8402344967050359 87.850000000000009 27.850000000000005 13.800000000000002 6.8227417564880897
decision_type=2 2 2 2 2 2 2 2 2 2 2 2 2 2
left_child=1 5 8 12 6 11 -3 -5 13 -6 -7 -1 -4 -2
right_child=2 4 3 7 9 10 -8 -9 -10 -11 -12 -13 -14 -15
leaf_value=14.945965743719363 7.0876734508167614 4.3612205686713708 0.43784410064435725 -0.9683795427598737 9.391786718475684 10.777295163332761 1.9591567512892891 -2.1598873696631435 1.5886100258509319 5.9448574246858303 7.2276488494873048 18.303372887899709 2.0492691559322997 5.3414370924426668
leaf_weight=102 22 528 299 1122 89 91 486 4013 75 152 52 43 173 62
leaf_count=102 22 528 299 1122 89 91 486 4013 75 152 52 43 173 62
internal_value=-1.58463e-08 5.61404 -1.50234 -1.65306 3.97957 12.7365 3.20994 -1.89954 3.81285 7.21779 9.48651 15.9416 1.02847 5.79878
internal_weight=7309 1543 5766 5607 1255 288 1014 5135 159 241 143 145 472 84
internal_count=7309 1543 5766 5607 1255 288 1014 5135 159 241 143 145 472 84
is_linear=0
shrinkage=0.08


Tree=11
num_leaves=15
num_cat=0
split_feature=8 6 5 6 5 8 8 6 6 8 5 8 5 1
split_gain=8.16828e+06 1.88335e+06 999882 663278 457365 279405 145066 139632 138622 121849 78045.4 63563.4 46805.8 24257
threshold=5.2907859277095151 27.150000000000002 6.7500000000000009 40.800000000000004 13.400000000000002 6.187236373491543 4.1190041246092024 19.250000000000004 19.250000000000004 6.6333175676286595 24.250000000000004 3.7726948748059121 26.200000000000006 -81.499999999999986
decision_type=2 2 2 2 2 2 2 2 2 2 2 2 2 2
left_child=1 7 3 8 11 -5 -6 10 -2 12 -1 -3 -4 -11
right_child=2 4 9 5 6 -7 -8 -9 -10 13 -12 -13 -14 -15
leaf_value=13.168946246711576 5.3789295604617102 4.4532460450472904 2.7583056923625913 0.22354485016244383 8.8678321743011477 -1.8240471350625052 5.6327332862933206 10.095369002651161 1.2259640023298561 1.4902471405596822 17.193450385199654 2.4734716822908451 5.5912953255393294 -0.008461912890275319
leaf_weight=98 86 146 246 467 128 4919 289 71 128 163 45 359 44 120
leaf_count=98 86 146 246 467 128 4919 289 71 128 163 45 359 44 120
internal_value=-1.85485e-08 6.23427 -1.14727 -1.47296 4.66496 -1.64651 6.62576 12.9955 2.89491 2.0357 14.4354 3.04584 3.18814 0.854752
internal_weight=7309 1136 6173 5600 922 5386 417 214 214 573 143 505 290 283
internal_count=7309 1136 6173 5600 922 5386 417 214 214 573 143 505 290 283
is_linear=0
shrinkage=0.08


Tree=12
num_leaves=15
num_cat=0
split_feature=2 1 5 6 5 6 2 2 6 5 2 5 5 5
split_gain=6.91363e+06 1.62168e+06 861323 574546 297187 295888 241047 137349 117329 89373.3 54026.2 42523.2 41406.4 37196.6
threshold=197.50000000000003 -76.499999999999986 3.0500000000000003 40.800000000000004 16.350000000000005 20.450000000000003 424.00000000000006 594.50000000000011 19.250000000000004 26.600000000000005 66.500000000000014 28.250000000000004 27.050000000000004 27.850000000000005
decision_type=2 2 2 2 2 2 2 2 2 2 2 2 2 2
left_child=1 5 3 8 10 13 -5 12 -2 -6 -3 -7 -4 -1
right_child=2 4 7 6 9 11 -8 -9 -10 -11 -12 -13 -14 -15
leaf_value=12.697864846622242 4.9486152223099111 3.7931784999098408 2.4929616288119747 0.4230353289793346 5.0045676045735679 7.5176799160826446 -1.713887163833649 0.63663260013622169 1.1278868687711656 7.8498204440515025 2.1506694119821477 10.821474572383995 5.2092269970121832 15.503244004360466
leaf_weight=102 86 219 248 363 225 102 4873 433 128 103 309 33 42 43
leaf_count=102 86 219 248 363 225 102 4873 433 128 103 309 33 42 43
internal_value=-1.19743e-08 5.73552 -1.05549 -1.39968 4.0068 11.0205 -1.56574 1.53901 2.66332 5.89805 2.83194 8.32527 2.88635 13.5298
internal_weight=7309 1136 6173 5450 856 280 5236 723 214 328 528 135 290 145
internal_count=7309 1136 6173 5450 856 280 5236 723 214 328 528 135 290 145
is_linear=0
shrinkage=0.08


Tree=13
num_leaves=15
num_cat=0
split_feature=8 6 6 5 5 8 8 6 8 6 5 4 8 8
split_gain=5.85509e+06 1.70904e+06 441398 363472 362877 196916 144317 137703 97884.5 94611.7 60989.1 35238 23844.9 6548.43
threshold=5.7587226177009461 29.150000000000002 40.800000000000004 10.600000000000001 2.1500000000000008 4.5900436644025815 6.8303339860793031 19.250000000000004 5.0657496176235997 19.250000000000004 21.950000000000003 5.5000000000000009 3.9219243190762363 6.8227417564880897
decision_type=2 2 2 2 2 2 2 2 2 2 2 2 2 2
left_child=1 7 9 8 6 -5 -4 10 -3 13 -1 -6 -9 -2
right_child=2 3 4 5 11 -7 -8 12 -10 -11 -12 -13 -14 -15
leaf_value=10.972789987664473 5.694455927068538 2.6639626120135511 -0.7522515588415013 6.5573695684362336 1.7350743850072226 3.6012931479177168 -1.7527653001298182 8.9281897446768621 0.64038087208513861 1.0425303042502632 14.424649536132813 0.28938569739375797 5.9087853318994705 4.0879183959960939
leaf_weight=95 22 413 1215 216 156 434 3835 70 243 126 50 350 22 62
leaf_count=95 22 413 1215 216 156 434 3835 70 243 126 50 350 22 62
internal_value=9.05215e-09 4.37706 -1.17131 3.24287 -1.30739 4.58362 -1.51205 10.6271 1.91437 2.42899 12.1631 0.735092 8.20616 4.50868
internal_weight=7309 1543 5766 1306 5556 650 5050 237 656 210 145 506 92 84
internal_count=7309 1543 5766 1306 5556 650 5050 237 656 210 145 506 92 84
is_linear=0
shrinkage=0.08


Tree=14
num_leaves=15
num_cat=0
split_feature=2 1 5 5 2 2 2 0 2 5 2 5 2 2
split_gain=4.97439e+06 1.18033e+06 612063 237875 192092 88857 82516.8 66893.3 59363 41219.6 38280 35903.8 34086.5 27034.2
threshold=197.50000000000003 -76.499999999999986 4.1500000000000012 17.750000000000004 653.00000000000011 759.00000000000011 42.500000000000007 1.5000000000000002 79.500000000000014 15.700000000000001 393.00000000000006 21.300000000000001 66.500000000000014 60.500000000000007
decision_type=2 2 2 2 2 2 2 2 2 2 2 2 2 2
left_child=1 6 4 8 10 11 9 -6 -3 -1 -2 -4 -5 -8
right_child=2 3 5 12 7 -7 13 -9 -10 -11 -12 -13 -14 -15
leaf_value=7.3596929931640629 0.63431133007025498 3.5146546671257255 1.8879442190942239 8.0081447441633369 -1.9242278173004688 0.51618327191713698 8.1907943998877677 -1.2089963419416152 2.0225064942790785 10.788240490424924 -0.48307789422253378 3.9414090663364956 5.4047488665580747 5.0119718468707548
leaf_weight=26 317 322 246 43 1094 370 67 3561 363 164 515 70 128 23
leaf_count=26 317 322 246 43 1094 370 67 3561 363 164 515 70 128 23
internal_value=-1.80386e-08 4.86508 -0.895307 3.39024 -1.17697 1.35761 9.37386 -1.37709 2.72393 10.3191 -0.0573419 2.34283 6.0594 7.37843
internal_weight=7309 1136 6173 856 5487 686 280 4655 685 190 832 316 171 90
internal_count=7309 1136 6173 856 5487 686 280 4655 685 190 832 316 171 90
is_linear=0
shrinkage=0.08


Tree=15
num_leaves=15
num_cat=0
split_feature=2 1 2 6 1 6 3 3 2 6 2 3 2 6
split_gain=4.21032e+06 999028 461716 366086 272325 200851 179448 67232.9 57394.1 43181.7 38243.2 18015.1 14299.8 13497.6
threshold=197.50000000000003 -76.499999999999986 393.00000000000006 29.950000000000003 -78.499999999999986 20.450000000000003 1.0000000180025095e-35 1.0000000180025095e-35 72.500000000000014 19.250000000000004 23.500000000000004 1.5000000000000002 35.500000000000007 98.850000000000009
decision_type=2 2 2 2 2 2 2 2 2 2 2 2 2 2
left_child=1 5 7 9 -5 12 10 13 -8 -4 -3 -7 -1 -2
right_child=2 6 3 4 -6 11 8 -9 -10 -11 -12 -13 -14 -15
leaf_value=11.27656824964158 2.5898588848114015 3.568835202241555 4.1688104620212458 0.84086416929741126 -1.3077030493431887 5.6832910628545852 5.6609976666672788 2.3342296747159956 3.6571309497820232 1.3307826591750322 1.6109709380431607 7.5894142360313266 9.6128129906747866 0.44251966453081859
leaf_weight=94 20 78 82 408 5058 84 133 250 293 59 352 51 51 296
leaf_count=94 20 78 82 408 5058 84 133 250 293 59 352 51 51 296
internal_value=5.00423e-09 4.47587 -0.823682 -1.0435 -1.14733 8.62396 3.11902 1.35396 4.28275 2.98127 1.96612 6.40338 10.6914 0.578427
internal_weight=7309 1136 6173 5607 5466 280 856 566 426 141 430 135 145 316
internal_count=7309 1136 6173 5607 5466 280 856 566 426 141 430 135 145 316
is_linear=0
shrinkage=0.08


Tree=16
num_leaves=15
num_cat=0
split_feature=2 6 5 6 5 2 5 6 2 5 2 5 6 2
split_gain=3.56605e+06 833505 483960 350906 255964 152766 82572.6 77248.8 42854.5 40380.2 32803.2 19675.1 13379.4 11403.2
threshold=187.50000000000003 24.900000000000002 11.900000000000002 47.050000000000004 11.300000000000002 831.00000000000011 27.050000000000004 19.250000000000004 42.500000000000007 26.200000000000006 27.500000000000004 24.250000000000004 19.250000000000004 759.00000000000011
decision_type=2 2 2 2 2 2 2 2 2 2 2 2 2 2
left_child=1 8 3 7 10 -5 -6 -2 11 13 -3 -1 -10 -4
right_child=2 4 9 5 6 -7 -8 -9 12 -11 -12 -13 -14 -15
leaf_value=9.0303298453397538 3.9461194646081261 3.2185825615740842 1.9063860440254212 -0.29536888203695061 3.9270897331923069 -1.2997039695280614 6.437202107565744 0.97635469929772134 8.0660396800321692 3.9715361694335942 1.547726893399624 11.025974218750001 5.4583785858154297 1.0131421682060948
leaf_weight=86 86 94 232 1254 334 4269 112 161 34 50 376 50 20 151
leaf_count=86 86 94 232 1254 334 4269 112 161 34 50 376 50 20 151
internal_value=9.95379e-09 4.18483 -0.746159 -0.939735 3.18461 -1.07167 4.55743 2.01036 9.00695 1.83336 1.8819 9.76402 7.10024 1.55422
internal_weight=7309 1106 6203 5770 916 5523 446 247 190 433 470 136 54 383
internal_count=7309 1106 6203 5770 916 5523 446 247 190 433 470 136 54 383
is_linear=0
shrinkage=0.08


Tree=17
num_leaves=15
num_cat=0
split_feature=2 1 6 1 3 6 2 2 6 2 2 1 1 2
split_gain=3.02812e+06 934586 275797 230395 167555 162002 84356 80851.7 60196.6 50044.6 18837.8 17931.9 11082.8 5198.24
threshold=326.50000000000006 -76.499999999999986 43.400000000000013 -78.499999999999986 1.5000000000000002 20.450000000000003 984.50000000000011 110.50000000000001 19.250000000000004 140.50000000000003 91.500000000000014 -86.499999999999986 -84.499999999999986 917.50000000000011
decision_type=2 2 2 2 2 2 2 2 2 2 2 2 2 2
left_child=1 5 8 11 7 12 -5 -3 13 -6 -7 -4 -1 -2
right_child=2 4 3 6 9 10 -8 -9 -10 -11 -12 -13 -14 -15
leaf_value=9.9133557716744853 4.655465434681286 2.4865371898992876 1.598698397141916 -0.55873519786650694 4.8333124464385362 5.7305019548904799 -1.3047517212218318 1.0019144575823757 0.88270819523628208 2.8487160990788385 3.3182728881835937 0.4781488854156366 8.4966049303327296 3.2240992318430255
leaf_weight=61 22 413 135 1304 147 121 3788 544 138 182 25 283 84 62
leaf_count=61 22 413 135 1304 147 121 3788 544 138 182 25 283 84 62
internal_value=-2.4574e-09 3.10445 -0.854104 -0.96549 2.17803 7.19855 -1.11371 1.64261 1.91049 3.73545 5.31745 0.840049 9.09262 3.59898
internal_weight=7309 1577 5732 5510 1286 291 5092 957 222 329 146 418 145 84
internal_count=7309 1577 5732 5510 1286 291 5092 957 222 329 146 418 145 84
is_linear=0
shrinkage=0.08


Tree=18
num_leaves=15
num_cat=0
split_feature=2 1 5 5 2 0 5 5 5 2 2 2 2 1
split_gain=2.57193e+06 584219 400342 139469 117231 62587.2 49835.8 38917.4 38819.9 29807.7 23802.1 13307.8 10459.5 7746.19
threshold=171.50000000000003 -72.499999999999986 10.600000000000001 16.350000000000005 588.50000000000011 1.5000000000000002 27.850000000000005 27.050000000000004 23.300000000000004 42.500000000000007 39.500000000000007 393.00000000000006 917.50000000000011 -79.499999999999986
decision_type=2 2 2 2 2 2 2 2 2 2 2 2 2 2
left_child=1 6 4 10 11 -6 9 -5 12 -1 -3 -2 -4 -8
right_child=2 3 8 7 5 -7 13 -9 -10 -11 -12 -13 -14 -15
leaf_value=6.8574612003384212 0.46829394573165523 2.6103765650356521 1.5617969812297798 3.3427862413280507 -1.4504126098119698 -0.78455147479876408 9.033032948630197 5.4080184090855612 3.2693072541554766 4.815281127929687 1.3627441678142822 -0.20351443024901744 0.74449504622081408 7.2313606480189732
leaf_weight=132 372 136 274 197 1183 3823 56 83 72 70 349 383 158 21
leaf_count=132 372 136 274 197 1183 3823 56 83 72 70 349 383 158 21
internal_value=-6.98292e-09 3.67621 -0.612604 2.53334 -0.801756 -0.941905 6.8099 3.95498 1.54951 6.14978 1.7126 0.127496 1.26288 8.54167
internal_weight=7309 1044 6265 765 5761 5006 279 280 504 202 485 755 432 77
internal_count=7309 1044 6265 765 5761 5006 279 280 504 202 485 755 432 77
is_linear=0
shrinkage=0.08


Tree=19
num_leaves=15
num_cat=0
split_feature=2 6 5 6 5 2 6 5 2 6 5 5 2 5
split_gain=2.17688e+06 500455 347918 267472 172378 100081 54426.8 53546.4 50322.5 32926.7 33876.2 23445.4 20163.4 8353.75
threshold=171.50000000000003 24.900000000000002 1.7500000000000002 47.050000000000004 11.300000000000002 959.50000000000011 19.250000000000004 18.850000000000005 46.500000000000007 19.250000000000004 24.250000000000004 13.800000000000002 27.500000000000004 28.250000000000004
decision_type=2 2 2 2 2 2 2 2 2 2 2 2 2 2
left_child=1 9 3 6 12 -5 -2 11 -6 10 -1 -4 -3 -9
right_child=2 4 7 5 8 -7 -8 13 -10 -11 -12 -13 -14 -15
leaf_value=6.8649262486671914 3.419515339570887 2.5154741611886533 0.30055315486044465 -0.3519315836663226 5.0624511599540716 -1.1357534993003209 0.91720370126436968 2.0140994926735205 3.1455188589301901 5.2585494735393112 9.5163941379123269 1.2130590386926776 1.1973844663975601 3.4727308557388632
leaf_weight=98 85 94 386 1444 128 3750 161 54 278 47 45 338 354 47
leaf_count=98 85 94 386 1444 128 3750 161 54 278 47 45 338 354 47
internal_value=-4.98016e-09 3.38212 -0.563596 -0.79576 2.55594 -0.917841 1.78182 0.967281 3.74987 7.09554 7.6993 0.726557 1.47395 2.69287
internal_weight=7309 1044 6265 5440 854 5194 246 825 406 190 143 724 448 101
internal_count=7309 1044 6265 5440 854 5194 246 825 406 190 143 724 448 101
is_linear=0
shrinkage=0.08


Tree=20
num_leaves=15
num_cat=0
split_feature=2 6 6 5 5 2 0 6 2 2 5 4 6 2
split_gain=1.85524e+06 579868 195189 173554 140359 97199.7 58054.2 43917.6 37354.3 27432.8 12370 12217 8578.24 3121.84
threshold=351.50000000000006 24.900000000000002 47.050000000000004 15.700000000000001 1.7500000000000002 86.500000000000014 2.5000000000000004 19.250000000000004 66.500000000000014 42.500000000000007 24.250000000000004 5.5000000000000009 19.250000000000004 917.50000000000011
decision_type=2 2 2 2 2 2 2 2 2 2 2 2 2 2
left_child=1 9 7 8 6 -5 -4 13 -3 10 -1 -6 -11 -2
right_child=2 3 4 5 11 -7 -8 -9 -10 12 -12 -13 -14 -15
leaf_value=6.545986895893896 3.9025757562546506 1.9643298591005391 -1.0058719136702101 4.3843671810752465 1.0822356787538217 2.1777483252452159 -0.1552860012128181 0.77140850354182089 0.77088277442451358 5.7585674388988597 8.1283623886108405 0.22922337657279254 3.7021526672840115 2.7740047011836886
leaf_weight=86 21 232 4366 190 153 390 582 152 607 37 50 361 20 62
leaf_count=86 21 232 4366 190 153 390 582 152 607 37 50 361 20 62
internal_value=-4.29683e-09 2.39608 -0.677986 1.83651 -0.775116 2.90061 -0.905823 1.57956 1.10089 6.51027 7.12774 0.483136 5.03702 3.05955
internal_weight=7309 1612 5697 1419 5462 580 4948 235 839 193 136 514 57 83
internal_count=7309 1612 5697 1419 5462 580 4948 235 839 193 136 514 57 83
is_linear=0
shrinkage=0.08


Tree=21
num_leaves=15
num_cat=0
split_feature=2 1 5 6 5 6 2 5 6 5 5 1 2 5
split_gain=1.57516e+06 351459 260465 193674 92652.9 82418.1 81629.9 42603.3 38989.6 27944.1 20067.8 17699.2 13069 10761
threshold=165.50000000000003 -72.499999999999986 3.0500000000000003 47.050000000000004 20.300000000000004 19.250000000000004 879.00000000000011 18.850000000000005 19.250000000000004 8.1500000000000004 21.950000000000003 -86.499999999999986 55.500000000000007 28.250000000000004
decision_type=2 2 2 2 2 2 2 2 2 2 2 2 2 2
left_child=1 5 3 8 9 10 -5 11 -2 -3 -1 -4 -6 -7
right_child=2 4 7 6 12 13 -8 -9 -10 -11 -12 -13 -14 -15
leaf_value=6.0155990097943475 2.8886956015298533 1.2235322960256942 1.4700251184011759 -0.22405481530774027 5.4485308739446827 3.6055988195677782 -0.95488946107539252 2.3453294775221081 0.78336058169054834 2.3638458306972798 8.0354186889648442 0.44529448328412508 3.543942357381185 5.1883189072480072
leaf_weight=85 86 406 133 1302 31 107 3932 108 163 208 50 571 90 37
leaf_count=85 86 406 133 1302 31 107 3932 108 163 208 50 571 90 37
internal_value=-2.99443e-09 2.92619 -0.471351 -0.669383 2.00856 5.3436 -0.773088 0.865852 1.5105 1.60983 6.76368 0.638887 4.03189 4.01227
internal_weight=7309 1014 6295 5483 735 279 5234 812 249 614 135 704 121 144
internal_count=7309 1014 6295 5483 735 279 5234 812 249 614 135 704 121 144
is_linear=0
shrinkage=0.08


Tree=22
num_leaves=15
num_cat=0
split_feature=2 1 6 1 3 6 2 2 2 6 1 2 1 2
split_gain=1.34644e+06 423520 140457 113315 83089.6 79998.4 44094.6 40544.4 26862.5 13088.4 13062.1 9061.98 7376.54 2642.33
threshold=351.50000000000006 -76.499999999999986 29.150000000000002 -80.499999999999986 1.5000000000000002 19.250000000000004 1050.5000000000002 79.500000000000014 140.50000000000003 19.250000000000004 -82.499999999999986 49.500000000000007 -86.499999999999986 917.50000000000011
decision_type=2 2 2 2 2 2 2 2 2 2 2 2 2 2
left_child=1 5 9 12 7 10 -5 -3 -6 13 -1 -7 -4 -2
right_child=2 4 3 6 8 11 -8 -9 -10 -11 -12 -13 -14 -15
leaf_value=6.875065059661865 3.3592740231468565 1.8349425610457317 1.2534412309304992 -0.35068674273212586 3.3358664556749824 4.025757739189828 -0.872783108244371 0.72404702414288102 1.881857983463413 0.98354736023479039 5.2735253795276993 2.7641278025978488 0.4840544647352798 2.3209886661652597
leaf_weight=80 21 303 134 1422 147 101 3807 687 182 54 55 57 197 62
leaf_count=80 21 303 134 1422 147 101 3807 687 182 54 55 57 197 62
internal_value=-5.04885e-09 2.04124 -0.577582 -0.639936 1.43008 4.79251 -0.730802 1.06405 2.53152 1.95298 6.22259 3.57061 0.795528 2.58369
internal_weight=7309 1612 5697 5560 1319 293 5229 990 329 137 135 158 331 83
internal_count=7309 1612 5697 5560 1319 293 5229 990 329 137 135 158 331 83
is_linear=0
shrinkage=0.08


Tree=23
num_leaves=15
num_cat=0
split_feature=5 2 2 6 6 5 0 2 6 5 0 2 5 2
split_gain=1.14945e+06 325147 211023 125081 55806.8 52657.8 52118.2 28308.1 25701.9 16016.5 15557.5 15008.8 14508.8 5868.74
threshold=11.300000000000002 60.500000000000007 458.50000000000006 49.750000000000007 19.250000000000004 25.350000000000005 1.5000000000000002 60.500000000000007 20.450000000000003 24.250000000000004 1.5000000000000002 157.50000000000003 28.250000000000004 16.500000000000004
decision_type=2 2 2 2 2 2 2 2 2 2 2 2 2 2
left_child=2 4 7 8 9 11 -5 13 -4 -2 -9 -3 -6 -1
right_child=1 5 3 6 12 -7 -8 10 -10 -11 -12 -13 -14 -15
leaf_value=2.1680345082283021 5.1371354397860447 1.8603019336726041 2.2679222968606387 -1.1608017722976569 3.2385685750740727 2.9654519750201511 -0.5548161659648414 -0.14477721811226099 0.55380377930657165 6.9925995958116323 0.67228440769722586 0.93291463114388051 4.7421446830661669 1.2309985502745755
leaf_weight=64 88 149 85 1189 147 126 3848 202 164 45 570 446 57 129
leaf_count=64 88 149 85 1189 147 126 3848 202 164 45 570 446 57 129
internal_value=3.75275e-09 2.43858 -0.412737 -0.611337 4.48993 1.47977 -0.697861 0.67514 1.13894 5.76492 0.458494 1.16515 3.65869 1.54173
internal_weight=7309 1058 6251 5286 337 721 5037 965 249 133 772 595 204 193
internal_count=7309 1058 6251 5286 337 721 5037 965 249 133 772 595 204 193
is_linear=0
shrinkage=0.08


Tree=24
num_leaves=15
num_cat=0
split_feature=5 8 8 6 1 6 5 6 8 5 8 0 5 8
split_gain=972891 275204 179125 110704 47783.2 47234.9 44569.5 22944.3 21687.4 13556.4 12772.4 12415.7 12280.3 5024.5
threshold=11.300000000000002 4.1190041246092024 6.0520642548089052 49.750000000000007 -82.499999999999986 19.250000000000004 25.350000000000005 19.250000000000004 4.1190041246092024 24.250000000000004 4.7664292796317111 1.5000000000000002 28.250000000000004 2.6735537653587347
decision_type=2 2 2 2 2 2 2 2 2 2 2 2 2 2
left_child=2 5 8 7 -5 9 10 -4 13 -2 -3 -10 -7 -1
right_child=1 6 3 4 -6 12 -8 -9 11 -11 -12 -13 -14 -15
leaf_value=2.048894480655068 4.7261646166714755 1.9222754335905377 2.1763688501497596 0.70735421354450834 -0.68068469655173669 2.97948310384945 2.7282158255198645 0.55017162872694958 -0.11857782373362678 6.4331914605034717 0.91037510655105114 0.65601699771097521 4.3627731925562809 1.1541308794258271
leaf_weight=57 88 95 82 164 4937 147 126 172 177 45 500 526 57 136
leaf_count=57 88 95 82 164 4937 147 126 172 177 45 500 526 57 136
internal_value=8.85299e-09 2.24349 -0.379718 -0.554891 -0.636058 4.13074 1.36139 1.07516 0.667216 5.30373 1.07194 0.460991 3.36599 1.41839
internal_weight=7309 1058 6251 5355 5101 337 721 254 896 133 595 703 204 193
internal_count=7309 1058 6251 5355 5101 337 721 254 896 133 595 703 204 193
is_linear=0
shrinkage=0.08


Tree=25
num_leaves=15
num_cat=0
split_feature=2 1 5 6 5 0 6 2 6 5 5 1 5 9
split_gain=827453 179130 150957 106095 57539.1 49545.5 37032.9 25918.4 22094.7 16370 15239.7 14604.5 10977.5 8651.55
threshold=157.50000000000003 -77.499999999999986 1.7500000000000002 49.750000000000007 20.300000000000004 1.5000000000000002 19.250000000000004 917.50000000000011 19.250000000000004 8.1500000000000004 28.250000000000004 -84.499999999999986 24.250000000000004 0.83974358974358987
decision_type=2 2 2 2 2 2 2 2 2 2 2 2 2 2
left_child=1 6 3 8 9 -5 12 10 -2 -3 -4 -9 -1 -8
right_child=2 4 7 5 -6 -7 13 11 -10 -11 -12 -13 -14 -15
leaf_value=4.4160400354294556 2.1242426264145795 0.90953554036860496 0.88274078912829634 -1.0187494407241282 3.150901642497788 -0.43514237744075296 3.3227256569207886 0.78210143704203106 0.56471939833105911 1.7723725861146908 2.280292185733193 -0.20047146831631663 5.9758839763294569 1.5735385348580102
leaf_weight=84 85 397 403 1216 117 3972 102 158 184 218 57 250 44 22
leaf_count=84 85 397 403 1216 117 3972 102 158 184 218 57 250 44 22
internal_value=-6.81612e-09 2.15807 -0.335738 -0.49161 1.52475 -0.571932 3.99771 0.644211 1.05751 1.21539 1.05592 0.180035 4.95224 3.01239
internal_weight=7309 984 6325 5457 732 5188 252 868 269 615 460 408 128 124
internal_count=7309 984 6325 5457 732 5188 252 868 269 615 460 408 128 124
is_linear=0
shrinkage=0.08


Tree=26
num_leaves=15
num_cat=0
split_feature=8 6 6 5 5 0 8 6 8 8 8 6 6 8
split_gain=707771 221756 76977.2 75406.7 58164.9 46698.2 35652.7 15244.6 13051.8 13012.4 8081.25 5267.17 3794.61 2841.92
threshold=5.9067223931117523 24.900000000000002 47.050000000000004 25.350000000000005 1.7500000000000002 2.5000000000000004 3.8606743063089755 20.450000000000003 4.5900436644025815 3.5972184255501678 6.8303339860793031 19.250000000000004 19.250000000000004 6.745235657442362
decision_type=2 2 2 2 2 2 2 2 2 2 2 2 2 2
left_child=1 9 7 6 5 -4 -3 -2 -5 12 -6 -11 -1 -9
right_child=2 3 4 8 10 -7 -8 13 -10 11 -12 -13 -14 -15
leaf_value=4.8121858093955305 1.8118279427422417 1.7924476730474368 -0.65946441304571102 3.5474318042699844 0.92241502459334057 0.10599042694306704 0.70858804530294384 1.3237741869146173 2.1256045680370148 3.6441917623322588 0.15646667040940235 2.2135091269534568 3.6773432922363281 0.33655007712724733
leaf_weight=88 90 239 4341 69 113 578 1037 22 103 58 401 23 24 123
leaf_count=88 90 239 4341 69 113 578 1037 22 103 58 401 23 24 123
internal_value=-3.69188e-09 1.46308 -0.423591 1.12356 -0.484906 -0.569521 0.911599 0.993971 2.69599 4.01038 0.324856 3.23795 4.56901 0.486336
internal_weight=7309 1641 5668 1448 5433 4919 1276 235 172 193 514 81 112 145
internal_count=7309 1641 5668 1448 5433 4919 1276 235 172 193 514 81 112 145
is_linear=0
shrinkage=0.08


Tree=27
num_leaves=15
num_cat=0
split_feature=5 2 2 6 0 5 6 2 6 2 5 6 1 2
split_gain=607951 173591 115196 62051 40162.4 26044.3 25576.8 17604.7 14655.2 10392.7 9656.96 8102.17 7230.05 6396.75
threshold=11.900000000000002 60.500000000000007 540.00000000000011 38.750000000000007 2.5000000000000004 27.850000000000005 20.450000000000003 125.50000000000001 60.050000000000004 116.50000000000001 27.050000000000004 20.450000000000003 -84.499999999999986 16.500000000000004
decision_type=2 2 2 2 2 2 2 2 2 2 2 2 2 2
left_child=2 6 7 11 -5 9 12 13 -9 -3 -8 -4 -2 -1
right_child=1 5 3 4 -6 -7 10 8 -10 -11 -12 -13 -14 -15
leaf_value=1.5954807164118843 4.7629277038574216 1.6065885865347727 1.5812868141266236 -0.59679177495380042 0.11229934532341704 2.2557692859242264 2.303412228204254 1.7152189787840231 0.12234421549104837 0.73287773319723781 3.5404619414230871 0.50198566039403281 3.6102340440865022 0.72451946215059781
leaf_weight=65 60 105 83 4366 579 103 133 39 709 512 58 96 83 318
leaf_count=65 60 105 83 4366 579 103 133 39 709 512 58 96 83 318
internal_value=3.99895e-09 1.77741 -0.299504 -0.460799 -0.513766 1.07815 3.28481 0.431246 0.205395 0.881564 2.67906 1.00244 4.09388 0.872333
internal_weight=7309 1054 6255 5124 4945 720 334 1131 748 617 191 179 143 383
internal_count=7309 1054 6255 5124 4945 720 334 1131 748 617 191 179 143 383
is_linear=0
shrinkage=0.08


Tree=28
num_leaves=15
num_cat=0
split_feature=5 2 2 6 0 5 6 6 0 6 5 0 2 2
split_gain=514570 146928 97643.6 52435.1 40009.8 22297 21821.3 18783.5 16940.3 13110.8 9490.41 8580.89 7708.8 3629.11
threshold=11.900000000000002 60.500000000000007 555.00000000000011 53.45000000000001 1.5000000000000002 23.300000000000004 19.250000000000004 19.250000000000004 1.5000000000000002 23.750000000000004 21.950000000000003 1.5000000000000002 27.500000000000004 157.50000000000003
decision_type=2 2 2 2 2 2 2 2 2 2 2 2 2 2
left_child=2 6 7 9 -5 11 10 -1 -9 -4 -2 -3 -8 -7
right_child=1 5 3 4 -6 13 12 8 -10 -11 -12 -13 -14 -15
leaf_value=2.7557415853227889 3.2924444901799581 0.2257304112469328 1.346946384229158 -0.92572185815666674 -0.36943752910410949 2.2614139736720493 3.0990468616250122 -0.18221862515016479 0.52217430106761453 0.22977130267931067 4.6876370605468747 0.94018130572794156 2.0889842587312062 1.4895725802941755
leaf_weight=21 83 145 95 1066 3698 70 81 294 851 230 50 417 120 88
leaf_count=21 83 145 95 1066 3698 70 81 294 851 230 50 417 120 88
internal_value=-2.4222e-09 1.63522 -0.275543 -0.426841 -0.493913 0.9919 3.02202 0.384793 0.341308 0.55633 3.81695 0.755848 2.49602 1.83153
internal_weight=7309 1054 6255 5089 4764 720 334 1166 1145 325 133 562 201 158
internal_count=7309 1054 6255 5089 4764 720 334 1166 1145 325 133 562 201 158
is_linear=0
shrinkage=0.08


Tree=29
num_leaves=15
num_cat=0
split_feature=2 1 2 6 1 3 3 6 6 6 2 2 0 1
split_gain=440978 94982.1 77933.7 41788.2 43045.8 29395.7 25156.1 17517.1 15785.3 10828.5 8786.33 7949.99 7398.62 5323.22
threshold=157.50000000000003 -78.499999999999986 744.50000000000011 51.150000000000006 -81.499999999999986 1.0000000180025095e-35 1.0000000180025095e-35 19.250000000000004 80.450000000000017 20.450000000000003 35.500000000000007 16.500000000000004 1.5000000000000002 -84.499999999999986
decision_type=2 2 2 2 2 2 2 2 2 2 2 2 2 2
left_child=1 7 6 9 -5 11 8 13 -2 -4 -7 -3 -8 -1
right_child=2 5 3 4 -6 10 12 -9 -10 -11 -12 -13 -14 -15
leaf_value=4.2526184303977272 1.4077217743946955 1.5181906476514093 1.3424819681803386 0.57735045283167197 -0.52152973414423776 2.4268241910298665 0.25732207908702548 2.2893456571827766 -0.021346235860755125 0.2337288994279727 1.4550508842563132 0.502601272109783 0.98062753347710119 3.1714505595545615
leaf_weight=55 52 58 75 241 4277 75 128 115 1016 227 289 330 309 62
leaf_count=55 52 58 75 241 4277 75 128 115 1016 227 289 330 309 62
internal_value=-2.63232e-09 1.57544 -0.245096 -0.402012 -0.462913 1.13888 0.257452 2.99051 0.0482339 0.509081 1.65528 0.654416 0.768767 3.67969
internal_weight=7309 984 6325 4820 4518 752 1505 232 1068 302 364 388 437 117
internal_count=7309 984 6325 4820 4518 752 1505 232 1068 302 364 388 437 117
is_linear=0
shrinkage=0.08


Tree=30
num_leaves=15
num_cat=0
split_feature=8 1 1 6 5 0 6 8 8 6 1 5 1 0
split_gain=374056 125463 41800.4 45261.9 39626.7 34950.3 19677.5 16078 8559.55 8282.84 6545.24 5304.34 3173.76 1867.17
threshold=5.9763380255224723 -72.499999999999986 -82.499999999999986 49.750000000000007 22.800000000000001 2.5000000000000004 20.450000000000003 4.7664292796317111 4.3882378946731615 19.250000000000004 -81.499999999999986 28.250000000000004 -87.499999999999986 1.5000000000000002
decision_type=2 2 2 2 2 2 2 2 2 2 2 2 2 2
left_child=1 6 12 9 7 -5 11 -3 -6 -4 -8 -1 -2 -14
right_child=2 4 3 5 8 -7 10 -9 -10 -11 -12 -13 13 -15
leaf_value=2.8670840305957976 1.028357613573269 0.89846164410119189 1.3369463678685631 -0.49220149915484923 2.7742659848235376 0.16171268800223196 2.3063486443143901 0.30213122762112682 1.4939586778640748 0.36169166984914364 1.2731109010256254 3.9337945665631975 0.039632028876518718 0.62785876189541612
leaf_weight=103 98 487 82 4495 43 592 99 713 150 174 65 42 49 117
leaf_count=103 98 487 82 4495 43 592 99 713 150 174 65 42 49 117
internal_value=-1.05334e-09 1.03876 -0.315314 -0.363868 0.71526 -0.416102 2.49712 0.544142 1.77921 0.674078 1.89683 3.17606 0.66735 0.454226
internal_weight=7309 1702 5607 5343 1393 5087 309 1200 193 256 164 145 264 166
internal_count=7309 1702 5607 5343 1393 5087 309 1200 193 256 164 145 264 166
is_linear=0
shrinkage=0.08


Tree=31
num_leaves=15
num_cat=0
split_feature=5 8 8 6 0 0 6 5 6 6 6 1 0 0
split_gain=322697 86932.8 69225.7 27932.7 25787 22443.7 16247.8 15008.8 12200.9 8777.79 7723.9 6909.88 6856.83 5144.15
threshold=13.150000000000002 4.1190041246092024 6.893148997887363 53.45000000000001 1.5000000000000002 1.5000000000000002 91.550000000000011 27.850000000000005 19.250000000000004 51.150000000000006 20.450000000000003 -83.499999999999986 1.5000000000000002 2.5000000000000004
decision_type=2 2 2 2 2 2 2 2 2 2 2 2 2 2
left_child=2 8 5 10 -5 9 -7 12 11 -1 -4 -2 -3 -10
right_child=1 7 3 4 -6 6 -8 -9 13 -11 -12 -13 -14 -15
leaf_value=0.85430716681480412 3.6204940045069134 0.21231689164592962 1.1344346184363732 -0.8486211696570084 -0.34909247626893708 0.96324573317879725 0.20848882231258262 1.7117407409890186 1.87010698455119 -0.37673672222690618 0.13869271582671414 2.449167617451061 0.83199330134618854 3.1968585241408576
leaf_weight=40 63 157 65 846 3031 210 1396 103 171 506 214 66 420 21
leaf_count=40 63 157 65 846 3031 210 1396 103 171 506 214 66 420 21
internal_value=-8.93384e-09 1.3344 -0.211753 -0.402458 -0.458095 0.156541 0.307181 0.822177 2.4195 -0.28655 0.370676 3.02121 0.663381 2.01522
internal_weight=7309 1001 6308 4156 3877 2152 1606 680 321 546 279 129 577 192
internal_count=7309 1001 6308 4156 3877 2152 1606 680 321 546 279 129 577 192
is_linear=0
shrinkage=0.08


Tree=32
num_leaves=15
num_cat=0
split_feature=8 1 8 0 1 3 3 6 6 1 8 8 9 6
split_gain=275873 57596.6 52334.7 30001.3 22034.9 20590.8 19333 16975.2 10754.7 7436.92 6630.97 6062.32 5653.79 5425.82
threshold=5.0657496176235997 -78.499999999999986 6.9231362598071584 2.5000000000000004 -83.499999999999986 1.0000000180025095e-35 1.0000000180025095e-35 19.250000000000004 19.250000000000004 -85.499999999999986 3.0201273556387074 3.5972184255501678 0.83974358974358987 80.950000000000017
decision_type=2 2 2 2 2 2 2 2 2 2 2 2 2 2
left_child=1 8 5 4 -4 7 10 -2 -1 -7 -3 -8 -10 -5
right_child=2 6 3 13 -6 9 11 -9 12 -11 -12 -13 -14 -15
leaf_value=2.8880319908337713 2.0232224933917706 1.2306791232613956 0.4592700477042877 1.3068238689281322 -0.48129483796394823 1.570119655609131 1.9657982637405398 -0.037386326543203258 2.0559939663096478 0.48990636707052865 0.36078810485359286 1.1585994897416718 0.57609522366523747 0.14311865365505219
leaf_weight=117 26 68 167 27 3507 45 75 1607 95 436 320 289 20 510
leaf_count=117 26 68 167 27 3507 45 75 1607 95 436 320 289 20 510
internal_value=-7.09787e-09 1.24609 -0.193858 -0.356905 -0.438542 0.130926 0.906128 -0.0045781 2.34802 0.590966 0.513243 1.32492 1.79862 0.201629
internal_weight=7309 984 6325 4211 3674 2114 752 1633 232 481 388 364 115 537
internal_count=7309 984 6325 4211 3674 2114 752 1633 232 481 388 364 115 537
is_linear=0
shrinkage=0.08


Tree=33
num_leaves=15
num_cat=0
split_feature=2 6 5 6 5 6 2 6 2 2 6 5 5 2
split_gain=234578 72420.9 37310.6 29821.7 25100.9 15760.5 14166.6 7028.17 5601 5022.46 2582.39 2278.66 2192.22 1335.06
threshold=393.00000000000006 20.450000000000003 28.250000000000004 53.45000000000001 1.7500000000000002 96.550000000000011 79.500000000000014 19.250000000000004 116.50000000000001 23.500000000000004 82.750000000000014 18.350000000000005 28.250000000000004 3692.5000000000005
decision_type=2 2 2 2 2 2 2 2 2 2 2 2 2 2
left_child=1 9 6 7 5 -5 -3 -2 -4 11 -6 -1 -11 -9
right_child=3 2 8 4 10 -7 -8 13 -10 12 -12 -13 -14 -15
leaf_value=2.6248761390237245 1.1142336322040094 0.91104581428082643 2.3045972853069063 -0.45573737673678716 -0.12140607174561949 -0.14649347386754008 0.3555201863407349 0.42070918393018958 1.3426125881546422 1.894152799987793 0.337382367043084 3.6429949696858723 2.7591839355468752 0.058635401508185712
leaf_weight=34 82 422 79 3189 98 1576 967 154 76 75 395 24 25 113
leaf_count=34 82 422 79 3189 98 1576 967 154 76 75 395 24 25 113
internal_value=3.51656e-09 0.822603 0.655668 -0.2497 -0.297233 -0.353456 0.524298 0.466425 1.83291 2.45392 0.246183 3.04617 2.11041 0.267472
internal_weight=7309 1702 1544 5607 5258 4765 1389 349 155 158 493 58 100 267
internal_count=7309 1702 1544 5607 5258 4765 1389 349 155 158 493 58 100 267
is_linear=0
shrinkage=0.08


Tree=34
num_leaves=15
num_cat=0
split_feature=5 2 2 6 6 1 5 2 1 1 6 6 2 5
split_gain=203794 55491.1 42169.6 19609.7 14801 14191.3 13316.2 11405.2 7443.9 6509.36 5576.38 3894.77 3160.14 3023.03
threshold=13.400000000000002 42.500000000000007 1014.5000000000001 53.45000000000001 60.050000000000004 -79.499999999999986 23.300000000000004 116.50000000000001 -87.499999999999986 -84.499999999999986 20.450000000000003 19.250000000000004 187.50000000000003 26.200000000000006
decision_type=2 2 2 2 2 2 2 2 2 2 2 2 2 2
left_child=2 9 4 10 11 -5 8 -6 -3 -2 -4 -1 -8 -11
right_child=1 6 3 5 7 -7 12 -9 -10 13 -12 -13 -14 -15
leaf_value=1.6007310609817507 2.7626554199218747 1.5801063267777604 0.97750575403066775 0.29248378416391635 0.48006033766458089 -0.40306247978324655 1.535344156228579 -0.021685884393220049 0.46131525200814461 1.5994896394481848 0.13097642424310876 0.65034306536564668 0.84497737036810971 2.3397361967298718
leaf_weight=40 75 41 65 198 348 3622 130 1738 531 102 213 89 63 54
leaf_count=40 75 41 65 198 348 3622 130 1738 531 102 213 89 63 54
internal_value=-3.72796e-09 1.06352 -0.167791 -0.319801 0.113445 -0.367011 0.735387 0.0620187 0.541508 2.15019 0.328906 0.945037 1.30999 1.85573
internal_weight=7309 996 6313 4098 2215 3820 765 2086 572 231 278 129 193 156
internal_count=7309 996 6313 4098 2215 3820 765 2086 572 231 278 129 193 156
is_linear=0
shrinkage=0.08


Tree=35
num_leaves=15
num_cat=0
split_feature=8 1 0 1 0 0 3 6 6 6 1 0 3 1
split_gain=170905 60693.6 30817.7 20673.7 20283.4 16994.5 16973.7 6147.14 5545.84 5166.9 4448.34 3687.93 3511.39 1869.61
threshold=5.9763380255224723 -79.499999999999986 2.5000000000000004 -83.499999999999986 1.5000000000000002 1.5000000000000002 1.5000000000000002 19.250000000000004 38.750000000000007 60.050000000000004 -80.499999999999986 1.5000000000000002 1.5000000000000002 -87.499999999999986
decision_type=2 2 2 2 2 2 2 2 2 2 2 2 2 2
left_child=1 7 3 13 -5 9 -7 12 -4 -3 -10 -9 -1 -2
right_child=2 5 8 4 -6 6 -8 11 10 -11 -12 -13 -14 -15
leaf_value=1.8960705847399575 0.76014466300275585 0.83143114970376086 1.5841096714564733 -0.59164781714593817 -0.21666116915686787 0.50652224125518708 1.2736977859472824 0.84567279325949174 1.1968525886535646 -0.055724878973529325 0.2139722827810738 1.7975789220766589 2.8045409717199936 0.28429750966490247
leaf_weight=56 90 48 21 1256 3484 847 236 37 31 337 597 88 53 128
leaf_count=56 90 48 21 1256 3484 847 236 37 31 337 597 88 53 128
internal_value=6.75472e-10 0.702141 -0.213134 -0.280991 -0.316025 0.511408 0.6737 1.89871 0.305255 0.0548816 0.26249 1.51581 2.3378 0.480748
internal_weight=7309 1702 5607 4958 4740 1468 1083 234 649 385 628 125 109 218
internal_count=7309 1702 5607 4958 4740 1468 1083 234 649 385 628 125 109 218
is_linear=0
shrinkage=0.08


Tree=36
num_leaves=15
num_cat=0
split_feature=5 2 2 0 0 0 5 0 0 0 5 2 2 5
split_gain=150281 41532.6 35708.3 21437.6 14138.4 12359.6 9699.02 8326.12 6544.52 5246.55 2844.8 2503.01 1721.67 1552.86
threshold=15.700000000000001 42.500000000000007 801.00000000000011 2.5000000000000004 1.5000000000000002 1.5000000000000002 27.850000000000005 2.5000000000000004 1.5000000000000002 2.5000000000000004 28.250000000000004 103.50000000000001 116.50000000000001 2.5500000000000003
decision_type=2 2 2 2 2 2 2 2 2 2 2 2 2 2
left_child=2 9 4 5 11 -4 8 -6 -3 10 -2 -1 -8 -5
right_child=1 6 3 13 7 -7 12 -9 -10 -11 -12 -13 -14 -15
leaf_value=0.14102324485778808 1.5784119158983232 0.062051152720743297 -0.55372051628402708 0.18032170226582808 0.22516033435986374 -0.23577775648951027 1.6758429217338562 0.86095409960360147 0.68401691168981749 3.0507356850306198 2.2316502176225188 -0.30555335166593078 1.0653874976604016 0.85156965260920314
leaf_weight=102 128 147 1065 538 1206 2950 48 148 411 24 64 378 77 23
leaf_count=102 128 147 1065 538 1206 2950 48 148 411 24 64 378 77 23
internal_value=-2.23168e-09 0.96864 -0.135851 -0.255388 0.162404 -0.320114 0.662852 0.294656 0.520166 1.93556 1.79616 -0.210656 1.2998 0.207842
internal_weight=7309 899 6410 4576 1834 4015 683 1354 558 216 192 480 125 561
internal_count=7309 899 6410 4576 1834 4015 683 1354 558 216 192 480 125 561
is_linear=0
shrinkage=0.08


Tree=37
num_leaves=15
num_cat=0
split_feature=2 3 0 2 6 1 6 1 1 0 2 2 6 6
split_gain=128939 27434.9 26297.9 24910.3 13961.3 13029.7 9061.26 8590.99 6996.54 5340.22 5153.3 3363.68 2176.55 1578.97
threshold=157.50000000000003 1.0000000180025095e-35 1.5000000000000002 1134.5000000000002 62.050000000000004 -84.499999999999986 51.150000000000006 -81.499999999999986 -84.499999999999986 2.5000000000000004 16.500000000000004 31.500000000000004 61.800000000000004 20.450000000000003
decision_type=2 2 2 2 2 2 2 2 2 2 2 2 2 2
left_child=1 10 6 7 -5 11 13 -4 -8 -7 -1 -3 -12 -2
right_child=2 5 3 4 -6 9 8 -9 -10 -11 12 -13 -14 -15
leaf_value=1.023794572353363 0.81054649613120333 2.4101542804115699 1.1652349705531679 0.57387525743559786 -0.21222120031573863 0.9224378814585249 0.34030727825467549 0.17427855463277797 -0.5225535365240157 1.7593006076270885 0.86803928391686802 1.5158473848829082 0.14235318947249273 0.073288599086304501
leaf_weight=58 22 57 58 152 2968 433 63 1616 1326 55 29 51 301 120
leaf_count=58 22 57 58 152 2968 433 63 1616 1326 55 29 51 301 120
internal_value=-7.8793e-10 0.851896 -0.132532 -0.0403475 -0.173924 1.19273 -0.421189 0.208613 -0.483417 1.01676 0.328354 1.98784 0.206126 0.187512
internal_weight=7309 984 6325 4794 3120 596 1531 1674 1389 488 388 108 330 142
internal_count=7309 984 6325 4794 3120 596 1531 1674 1389 488 388 108 330 142
is_linear=0
shrinkage=0.08


Tree=38
num_leaves=15
num_cat=0
split_feature=5 2 2 0 6 0 6 5 0 1 6 2 3 0
split_gain=112567 30805.9 26738.3 16532.1 13010.1 13052 12816.9 7895.06 4723.5 4143.87 2841.32 2252.31 1928.4 1825.25
threshold=15.700000000000001 42.500000000000007 1088.0000000000002 2.5000000000000004 19.250000000000004 1.5000000000000002 51.150000000000006 28.250000000000004 1.5000000000000002 -86.499999999999986 80.950000000000017 19.500000000000004 2.5000000000000004 1.5000000000000002
decision_type=2 2 2 2 2 2 2 2 2 2 2 2 2 2
left_child=2 9 4 6 -1 -6 -4 8 -3 11 -5 -2 -9 -11
right_child=1 7 3 10 5 -7 -8 12 -10 13 -12 -13 -14 -15
leaf_value=1.4257452581239785 2.9789818954467773 0.061620260490067053 0.26394344472885128 0.97779450451886207 -0.24682939550778074 0.18001864432951667 -0.34782079854529757 1.0074992253992818 0.58739762347363789 1.0627028704704122 0.13472819998127517 1.8588828560158057 1.8340496106581257 1.6494702526780427
leaf_weight=46 20 149 235 27 623 1736 3255 101 411 47 488 27 22 122
leaf_count=46 20 149 235 27 623 1736 3255 101 411 47 488 27 22 122
internal_value=-7.51363e-10 0.838332 -0.117576 -0.24419 0.0932732 0.0672902 -0.306628 0.574976 0.447503 1.67107 0.178928 2.33552 1.15534 1.48629
internal_weight=7309 899 6410 4005 2405 2359 3490 683 560 216 515 47 123 169
internal_count=7309 899 6410 4005 2405 2359 3490 683 560 216 515 47 123 169
is_linear=0
shrinkage=0.08


Tree=39
num_leaves=15
num_cat=0
split_feature=2 5 5 6 0 2 1 5 6 2 1 5 0 2
split_gain=96405.1 26561.3 23552.3 21987.2 18468.7 8206.6 7012.97 6809.56 4618.11 3579.43 2850.04 2759.64 2360.26 1512.34
threshold=116.50000000000001 1.7500000000000002 15.700000000000001 53.45000000000001 1.5000000000000002 31.500000000000004 -87.499999999999986 19.550000000000001 23.750000000000004 6.5000000000000009 -84.499999999999986 19.550000000000001 1.5000000000000002 576.00000000000011
decision_type=2 2 2 2 2 2 2 2 2 2 2 2 2 2
left_child=2 3 9 8 -5 10 13 -8 -2 -1 -4 -7 -11 -3
right_child=1 6 5 4 -6 11 7 -9 -10 12 -12 -13 -14 -15
leaf_value=1.1468133444256254 0.876877311189598 1.4991516149753616 2.2217490545908611 -0.49421571948474902 -0.13184288884742307 0.74341633578624911 0.099821782569061809 0.68492448919094528 0.24806868363532328 -0.008245757619305601 1.4718100409984589 1.2600906909012997 0.43677304765757391 0.74357719583944848
leaf_weight=36 107 21 48 1161 4006 149 692 156 248 106 100 119 272 88
leaf_count=36 107 21 48 1161 4006 149 692 156 248 106 100 119 272 88
internal_value=-2.98487e-10 -0.103991 0.811757 -0.171423 -0.213266 1.23689 0.285101 0.207459 0.437597 0.384574 1.71503 0.972835 0.311979 0.889147
internal_weight=7309 6479 830 5522 5167 416 957 848 355 414 148 268 378 109
internal_count=7309 6479 830 5522 5167 416 957 848 355 414 148 268 378 109
is_linear=0
shrinkage=0.08


Tree=40
num_leaves=14
num_cat=0
split_feature=2 1 0 1 0 0 2 0 1 1 3 2 1
split_gain=83604.8 30839.3 18743.3 13330.7 11003.9 9125.55 8999.26 3379.37 2904.07 2508.02 2055.81 1688.1 1145.32
threshold=424.00000000000006 -80.499999999999986 2.5000000000000004 -83.499999999999986 2.5000000000000004 1.5000000000000002 27.500000000000004 2.5000000000000004 -83.499999999999986 -88.499999999999986 1.5000000000000002 1231.0000000000002 -87.499999999999986
decision_type=2 2 2 2 2 2 2 2 2 2 2 2 2
left_child=1 7 3 12 6 -5 -3 9 -4 -1 -6 -10 -2
right_child=2 4 8 5 10 -7 -8 -9 11 -11 -12 -13 -14
leaf_value=1.8344892444610597 0.62740684399444069 0.88456780666019774 1.1563898398659445 -0.4197704942310535 0.85624086296349244 -0.16711901704117232 0.21692252758295172 2.3371687425885881 0.51027293624164904 1.1244350328559103 1.5818969547748567 0.16106108302630268 0.25374113297730216
leaf_weight=40 89 144 22 1247 114 3436 1258 21 107 156 32 515 128
leaf_count=40 89 144 22 1247 114 3436 1258 21 107 156 32 515 128
internal_value=9.54692e-10 0.47953 -0.152664 -0.205991 0.354327 -0.234396 0.285497 1.37268 0.253084 1.26934 1.01529 0.221135 0.406996
internal_weight=7309 1765 5544 4900 1548 4683 1402 217 644 196 146 622 217
internal_count=7309 1765 5544 4900 1548 4683 1402 217 644 196 146 622 217
is_linear=0
shrinkage=0.08


Tree=41
num_leaves=15
num_cat=0
split_feature=5 2 6 2 1 1 5 6 5 1 6 1 2 2
split_gain=71466.6 20844.6 18191.3 16586.8 8116.02 5984 5332.5 5243.93 3680.97 3466.82 2802.56 2584.82 1653.91 1469.61
threshold=13.800000000000002 97.500000000000014 53.45000000000001 1119.5000000000002 -77.499999999999986 -82.499999999999986 27.850000000000005 20.450000000000003 27.850000000000005 -87.499999999999986 19.250000000000004 -85.499999999999986 1014.5000000000001 555.00000000000011
decision_type=2 2 2 2 2 2 2 2 2 2 2 2 2 2
left_child=2 6 7 5 -5 -4 11 13 9 -3 -8 -2 -9 -1
right_child=1 8 3 4 -6 -7 10 12 -10 -11 -12 -13 -14 -15
leaf_value=1.3792633599248427 1.373236198425293 1.0127569966997418 0.94893228382534445 0.22206113452091814 -0.27088182077190526 0.017084723744198466 2.0754231548309328 0.54660148146640819 0.81409912866704603 0.1872608470495559 1.2462294843037922 0.77196167017493778 0.12561946000991292 0.71560340010089629
leaf_weight=29 57 35 45 228 3423 2216 40 83 85 467 75 232 213 81
leaf_count=29 57 35 45 228 3423 2216 40 83 85 467 75 232 213 81
internal_value=-1.06063e-09 0.631634 -0.099074 -0.134648 -0.240098 0.035631 1.0739 0.418934 0.32725 0.244815 1.53464 0.890552 0.243665 0.890568
internal_weight=7309 991 6318 5912 3651 2261 404 406 587 502 115 289 296 110
internal_count=7309 991 6318 5912 3651 2261 404 406 587 502 115 289 296 110
is_linear=0
shrinkage=0.08


Tree=42
num_leaves=14
num_cat=0
split_feature=2 6 0 5 6 1 0 5 6 9 2 1 6
split_gain=61604.9 22365.2 16090.7 12134.4 10253.1 10484.9 8116.22 4706.66 3036.31 2538.88 2757.72 2348.41 1998.91
threshold=424.00000000000006 20.450000000000003 2.5000000000000004 18.850000000000005 51.150000000000006 -80.499999999999986 1.5000000000000002 28.700000000000006 38.750000000000007 0.83974358974358987 23.500000000000004 -83.499999999999986 19.250000000000004
decision_type=2 2 2 2 2 2 2 2 2 2 2 2 2
left_child=1 9 4 6 12 -6 -3 -5 -4 10 -1 -10 -2
right_child=2 3 8 7 5 -7 -8 -9 11 -11 -12 -13 -14
leaf_value=1.9605281869570415 0.64700674771623956 -0.12151507473542347 1.1910326875959125 0.70343257695886319 0.25647004060318312 -0.2412821554850309 0.33517097667093404 1.9476517050606865 1.0248203563690186 0.69569735180247916 1.1879290406734913 0.18328536875434406 0.15876604953537818
leaf_weight=48 70 333 21 265 289 4311 988 21 22 33 77 601 230
leaf_count=48 70 333 21 265 289 4311 988 21 22 33 77 601 230
internal_value=-6.12591e-11 0.411631 -0.131048 0.322336 -0.180457 -0.21001 0.220049 0.794791 0.244895 1.31983 1.48461 0.213002 0.272689
internal_weight=7309 1765 5544 1607 4900 4600 1321 286 644 158 125 623 300
internal_count=7309 1765 5544 1607 4900 4600 1321 286 644 158 125 623 300
is_linear=0
shrinkage=0.08


Tree=43
num_leaves=15
num_cat=0
split_feature=2 0 2 5 0 6 2 2 2 1 1 0 0 6
split_gain=53394 16896.5 14449.2 13470.2 6810.06 6784.1 5344.72 4455.36 2785.58 2010.53 1856.21 1771.95 1727.25 333.124
threshold=116.50000000000001 2.5000000000000004 1231.0000000000002 16.350000000000005 1.5000000000000002 51.150000000000006 31.500000000000004 624.00000000000011 6.5000000000000009 -86.499999999999986 -80.499999999999986 1.5000000000000002 1.5000000000000002 93.550000000000011
decision_type=2 2 2 2 2 2 2 2 2 2 2 2 2 2
left_child=3 2 4 8 -2 -4 9 13 -1 -5 -9 -8 -10 -3
right_child=1 7 5 6 -6 -7 11 10 12 -11 -12 -13 -14 -15
leaf_value=0.95433491256501934 -0.1757020407977857 1.0091184796958135 0.18630315415496412 1.8863638662522839 0.11229209398635331 -0.26419149106424655 0.32661045318942961 0.82116089884440102 -0.054338885716327993 1.1611039148733533 0.17610898881999368 0.82306985593868787 0.3250730808561339 0.68798312187194821
leaf_weight=36 760 29 230 31 1703 3064 59 30 107 116 591 209 272 72
leaf_count=36 760 29 230 31 1703 3064 59 30 107 116 591 209 272 72
internal_value=-4.5679e-09 -0.0773914 -0.123143 0.604119 0.0234267 -0.232736 0.926402 0.287416 0.281835 1.31405 0.207271 0.713775 0.217957 0.78019
internal_weight=7309 6479 5757 830 2463 3294 415 722 415 147 621 268 379 101
internal_count=7309 6479 5757 830 2463 3294 415 722 415 147 621 268 379 101
is_linear=0
shrinkage=0.08


Tree=44
num_leaves=15
num_cat=0
split_feature=5 8 6 0 8 5 1 5 8 0 6 8 9 8
split_gain=46202.5 15506.5 13600.7 13779.8 9351.64 5103.6 3966.57 4086.7 3861.41 3383.36 2997.03 2505.56 2152.19 2050.54
threshold=6.0000000000000009 4.7664292796317111 53.45000000000001 1.5000000000000002 7.2413621782488589 28.250000000000004 -85.499999999999986 17.750000000000004 7.2258447121306313 1.5000000000000002 19.250000000000004 6.6333175676286595 0.53589743589743599 6.2934175704989839
decision_type=2 2 2 2 2 2 2 2 2 2 2 2 2 2
left_child=2 5 10 8 -5 9 13 -8 -4 -2 11 -1 -7 -3
right_child=1 6 3 4 -6 12 7 -9 -10 -11 -12 -13 -14 -15
leaf_value=1.4637644147872926 0.25441141810372608 1.3619950733184814 -0.23856274108835721 0.079998306508069494 -0.15819799908454743 0.94913685724768837 0.024635159913197306 0.47700500778503274 -0.51989027317780168 0.78542711637585483 0.23880281939846545 0.51654261541366586 1.6343227928161621 0.48259420498207745
leaf_weight=24 107 20 748 1827 2496 71 515 170 536 272 291 70 50 112
leaf_count=24 107 20 748 1827 2496 71 515 170 536 272 291 70 50 112
internal_value=-2.74119e-10 0.429029 -0.0942976 -0.12588 -0.0575307 0.779926 0.214282 0.136902 -0.356002 0.63551 0.365662 0.758386 1.23227 0.615837
internal_weight=7309 1317 5992 5607 4323 500 817 685 1284 379 385 94 121 132
internal_count=7309 1317 5992 5607 4323 500 817 685 1284 379 385 94 121 132
is_linear=0
shrinkage=0.08


Tree=45
num_leaves=15
num_cat=0
split_feature=2 6 0 0 5 0 6 6 6 4 2 5 5 5
split_gain=39236.1 15566 11499.7 8737.25 6834.23 6798.61 5553.15 2607.07 2284.81 1651.89 1786.83 1313.99 1086.85 105.158
threshold=442.50000000000006 20.450000000000003 2.5000000000000004 2.5000000000000004 21.300000000000001 1.5000000000000002 62.050000000000004 51.150000000000006 38.750000000000007 7.5000000000000009 23.500000000000004 2.5500000000000003 19.550000000000001 16.350000000000005
decision_type=2 2 2 2 2 2 2 2 2 2 2 2 2 2
left_child=1 9 5 4 -3 7 -7 -2 -4 10 -1 -10 -5 -11
right_child=2 3 8 12 -6 6 -8 -9 11 13 -12 -13 -14 -15
leaf_value=1.6290478956434462 0.033460300271258209 0.11789444281090797 1.0326883288792201 0.71735884601419631 0.58981879303639539 0.34636034466957638 -0.11330721239425047 -0.34147894323733063 0.15147749577692518 0.51806302161443807 0.98812672303147508 0.59576331729474274 1.2416272479295731 0.77438117599487299
leaf_weight=45 132 1250 21 121 233 177 3384 1177 577 21 73 46 32 20
leaf_count=45 132 1250 21 121 233 177 3384 1177 577 21 73 46 32 20
internal_value=-3.02001e-09 0.324867 -0.105755 0.251423 0.19204 -0.147768 -0.0904594 -0.30367 0.211947 1.08055 1.23255 0.184282 0.82701 0.643096
internal_weight=7309 1795 5514 1636 1483 4870 3561 1309 644 159 118 623 153 41
internal_count=7309 1795 5514 1636 1483 4870 3561 1309 644 159 118 623 153 41
is_linear=0
shrinkage=0.08


Tree=46
num_leaves=15
num_cat=0
split_feature=5 2 0 2 0 0 0 5 1 2 0 9 1 2
split_gain=34371.3 11456.6 10343.3 9101.23 4121.2 4021.06 3642.06 3623.93 2942.19 2547.63 2443.32 1907.63 911.934 274.63
threshold=6.0000000000000009 103.50000000000001 2.5000000000000004 1231.0000000000002 1.5000000000000002 1.5000000000000002 1.5000000000000002 27.850000000000005 -87.499999999999986 772.00000000000011 1.5000000000000002 0.53589743589743599 -85.499999999999986 1373.5000000000002
decision_type=2 2 2 2 2 2 2 2 2 2 2 2 2 2
left_child=2 7 3 6 -5 12 -1 10 -7 -4 -2 -9 -3 -11
right_child=1 5 9 4 -6 8 -8 11 -10 13 -12 -13 -14 -15
leaf_value=-0.15052545910839432 0.22232014630930594 0.28773623706716478 0.54718764218417082 -0.3721802582924798 -0.15587679296281765 0.83522839441137808 0.070262257024605548 0.79741864592281742 0.24167628566170454 0.27866351032257081 0.69058755628501678 1.4542143883023944 -0.16841119089945752 0.11829507756589065
leaf_weight=687 99 33 121 745 2317 59 1573 67 568 80 255 49 187 469
leaf_count=687 99 33 121 745 2317 59 1573 67 568 80 255 49 187 469
internal_value=-2.82254e-09 0.370043 -0.0813328 -0.118626 -0.208505 0.194277 0.0031467 0.686794 0.297529 0.2149 0.559631 1.07486 -0.0999891 0.141664
internal_weight=7309 1317 5992 5322 3062 847 2260 470 627 670 354 116 220 549
internal_count=7309 1317 5992 5322 3062 847 2260 470 627 670 354 116 220 549
is_linear=0
shrinkage=0.08


Tree=47
num_leaves=15
num_cat=0
split_feature=5 6 2 2 1 5 2 6 9 2 1 2 6 2
split_gain=29497.6 10570.6 10393.8 6830.85 4719.75 5831.76 3936.01 2277.97 2235.37 2004.61 1998.39 1843.18 1501.16 847.225
threshold=1.7500000000000002 53.45000000000001 31.500000000000004 1215.0000000000002 -85.499999999999986 18.350000000000005 19.500000000000004 19.250000000000004 0.83974358974358987 759.00000000000011 -84.499999999999986 517.50000000000011 88.050000000000011 442.50000000000006
decision_type=2 2 2 2 2 2 2 2 2 2 2 2 2 2
left_child=1 7 8 6 11 -6 -3 9 10 -1 -2 -4 -5 -9
right_child=2 3 4 12 5 -7 -8 13 -10 -11 -12 -13 -14 -15
leaf_value=1.3001433988412223 1.4513936646130621 0.60751697300058427 0.95067976009461197 -0.25091598646659552 0.064407704231304846 0.4961291612416841 -0.019648351441206479 0.56225281299688878 0.35439135386393622 0.45132143865460933 0.81891189196835401 0.43409198814398281 -0.13932874326121408 0.16146070802591714
leaf_weight=24 49 66 62 1270 801 267 2160 39 39 69 92 154 1966 251
leaf_count=24 49 66 62 1270 801 267 2160 39 39 69 92 154 1966 251
internal_value=2.96938e-10 -0.0804326 0.321126 -0.108921 0.241316 0.172338 -0.00105315 0.325846 0.890441 0.670372 1.03871 0.582372 -0.183122 0.21536
internal_weight=7309 5845 1464 5462 1284 1068 2226 383 180 93 141 216 3236 290
internal_count=7309 5845 1464 5462 1284 1068 2226 383 180 93 141 216 3236 290
is_linear=0
shrinkage=0.08


Tree=48
num_leaves=15
num_cat=0
split_feature=5 0 6 6 0 0 0 5 6 6 6 1 1 1
split_gain=24966.7 8968.91 8264.85 7837.31 6263.94 5730.02 3706.99 2553.75 1506.56 1079.95 1170.16 1012.47 980.749 759.162
threshold=1.7500000000000002 2.5000000000000004 53.45000000000001 19.250000000000004 1.5000000000000002 1.5000000000000002 2.5000000000000004 18.350000000000005 19.250000000000004 80.950000000000017 96.950000000000017 -83.499999999999986 -85.499999999999986 -82.499999999999986
decision_type=2 2 2 2 2 2 2 2 2 2 2 2 2 2
left_child=1 2 8 7 12 -4 -6 11 -1 -3 -11 -2 -5 -9
right_child=3 9 5 4 6 -7 -8 13 -10 10 -12 -13 -14 -15
leaf_value=0.56880017485515577 0.90650920718056816 0.64177523949567006 -0.28614926580993499 0.24692833549072668 0.28099377294395006 -0.085884031088505175 0.73611864612066658 1.5077318965064155 0.17508214661656923 0.11701638961488095 0.37065031776180518 0.33280680788887873 -0.10180905576505059 0.89300115060806284
leaf_weight=81 35 34 1225 62 825 3606 133 36 268 477 154 45 308 20
leaf_count=81 35 34 1225 62 825 3606 133 36 268 477 154 45 308 20
internal_value=-3.02508e-10 -0.073998 -0.109505 0.295436 0.236202 -0.136665 0.344179 0.873842 0.266461 0.202582 0.178918 0.583802 -0.043372 1.28819
internal_weight=7309 5845 5180 1464 1328 4831 958 136 349 665 631 80 370 56
internal_count=7309 5845 5180 1464 1328 4831 958 136 349 665 631 80 370 56
is_linear=0
shrinkage=0.08


Tree=49
num_leaves=15
num_cat=0
split_feature=2 1 2 2 6 6 1 3 2 7 6 6 6 1
split_gain=23365.9 8057.84 6923.7 4792.57 4432.79 4305.74 2311.24 2173.7 1708.84 1459.46 769.17 663.746 574.194 443.091
threshold=116.50000000000001 -84.499999999999986 1134.5000000000002 31.500000000000004 60.050000000000004 22.400000000000002 -84.499999999999986 1.0000000180025095e-35 442.50000000000006 8.5000000000000018 20.450000000000003 19.250000000000004 98.050000000000011 -89.499999999999986
decision_type=2 2 2 2 2 2 2 2 2 2 2 2 2 2
left_child=3 8 4 6 -3 -4 10 12 -2 -8 -1 -9 -5 -10
right_child=1 2 5 7 -6 -7 9 11 13 -11 -12 -13 -14 -15
leaf_value=1.3674775729459876 1.1297365179061891 0.54915248624192414 0.51097137380448676 0.17879405096725184 0.015239647465718936 -0.14571890455917655 0.81824673250497104 0.63399180917221987 0.6492909751619611 0.39255059042835938 0.76846607954605772 0.3414020743574317 -0.080367936491966246 0.30612167025959597
leaf_weight=34 20 104 65 135 2311 3779 83 61 28 136 23 266 92 172
leaf_count=34 20 104 65 135 2311 3779 83 61 28 136 23 266 92 172
internal_value=4.16706e-10 -0.0511962 -0.0679227 0.399639 0.0382322 -0.134615 0.671994 0.263953 0.424672 0.553887 1.12577 0.395983 0.0737592 0.354165
internal_weight=7309 6479 6259 830 2415 3844 276 554 220 219 57 327 227 200
internal_count=7309 6479 6259 830 2415 3844 276 554 220 219 57 327 227 200
is_linear=0
shrinkage=0.08


Tree=50
num_leaves=15
num_cat=0
split_feature=8 1 0 0 1 0 5 0 6 8 1 5 5 1
split_gain=19929.4 8206.7 7140.01 5681.43 4559.73 4156.62 4126.87 1628.42 1420.71 1184.78 949.208 913.011 710.165 496.028
threshold=6.0946971662386806 -81.499999999999986 2.5000000000000004 2.5000000000000004 -83.499999999999986 1.5000000000000002 21.300000000000001 1.5000000000000002 38.750000000000007 2.6735537653587347 -83.499999999999986 3.7500000000000004 19.550000000000001 -85.499999999999986
decision_type=2 2 2 2 2 2 2 2 2 2 2 2 2 2
left_child=1 7 4 6 11 -6 -3 13 -4 -9 -10 -2 -5 -1
right_child=2 3 8 12 5 -7 -8 9 10 -11 -12 -13 -14 -15
leaf_value=0.57748627016621246 0.75278924487885979 0.06509721562007649 0.82215951283772781 0.55489259982513173 -0.25084260925602375 -0.07965933211922481 0.43857940997828598 1.4020762235468085 0.66927376608956946 0.76302737485460881 0.13425846083191986 0.1974777118646607 0.99080448790391284 0.10846320496665107
leaf_weight=31 21 1224 21 118 1236 3419 224 22 22 119 601 194 30 27
leaf_count=31 21 1224 21 118 1236 3419 224 22 22 119 601 194 30 27
internal_value=-9.74518e-10 0.231531 -0.0753716 0.171129 -0.108476 -0.125112 0.122873 0.715962 0.174967 0.862737 0.153151 0.251717 0.643253 0.359148
internal_weight=7309 1795 5514 1596 4870 4655 1448 199 644 141 623 215 148 58
internal_count=7309 1795 5514 1596 4870 4655 1448 199 644 141 623 215 148 58
is_linear=0
shrinkage=0.08


Tree=51
num_leaves=15
num_cat=0
split_feature=2 0 6 5 5 2 6 2 6 0 6 4 2 1
split_gain=17304.2 7868.2 5394.33 6025.61 4532.64 2981.27 1934.82 2435.86 1796.77 1613.31 1471.87 1239.74 1038.05 686.461
threshold=116.50000000000001 1.5000000000000002 62.050000000000004 1.4500000000000002 18.350000000000005 19.500000000000004 51.150000000000006 1384.5000000000002 19.250000000000004 1.5000000000000002 49.750000000000007 7.5000000000000009 555.00000000000011 -54.499999999999993
decision_type=2 2 2 2 2 2 2 2 2 2 2 2 2 2
left_child=4 6 12 -4 5 11 13 -8 -6 -7 -10 -1 -3 -2
right_child=1 2 3 -5 8 9 7 -9 10 -11 -12 -13 -14 -15
leaf_value=0.75690917844059824 0.14922447904463737 0.83355812220737846 -0.05035159461529843 0.2061096497849606 1.0690971042854447 -0.093060463853473746 -0.14274966910940534 -0.35644168725938602 0.17490783433119458 0.23629029094467036 0.73023895232450398 0.2504524922370911 0.32107304295506139 -0.35584760332107546
leaf_weight=87 124 29 4001 687 56 127 849 571 48 380 84 48 198 20
leaf_count=87 124 29 4001 687 56 127 849 571 48 380 84 48 198 20
internal_value=-8.32381e-10 -0.0440577 0.0056737 -0.0127686 0.343915 0.242748 -0.200343 -0.228678 0.689389 0.15379 0.5283 0.576836 0.386545 0.0790756
internal_weight=7309 6479 4915 4688 830 642 1564 1420 188 507 132 135 227 144
internal_count=7309 6479 4915 4688 830 642 1564 1420 188 507 132 135 227 144
is_linear=0
shrinkage=0.08


Tree=52
num_leaves=15
num_cat=0
split_feature=8 0 8 5 8 0 6 5 6 0 8 0 6 6
split_gain=14721.2 6971.38 5089.82 4246.6 2799.36 2618.06 2592.32 1853.27 2066.2 1738.51 1490.18 1145.13 629.45 232.357
threshold=5.0139575654555903 2.5000000000000004 7.1163938146744004 18.350000000000005 3.0201273556387074 1.5000000000000002 19.250000000000004 28.700000000000006 19.250000000000004 1.5000000000000002 6.437750369734764 1.5000000000000002 80.950000000000017 93.550000000000011
decision_type=2 2 2 2 2 2 2 2 2 2 2 2 2 2
left_child=3 2 6 4 11 -4 -2 8 -5 -6 13 -1 -12 -3
right_child=1 10 5 7 9 -7 -8 -9 -10 -11 12 -13 -14 -15
leaf_value=0.12910845861715431 0.79557981985586668 0.74202530646324161 -0.26336343251502337 0.96223603725433349 -0.11265044039038763 -0.097323130870619445 0.0071583400022155212 1.3378388538360597 0.37444399903457742 0.20453816485542217 0.50669150527318318 0.6658743029655797 0.13106009950492589 0.43130140502061415
leaf_weight=34 27 20 804 52 146 2490 2326 20 145 456 30 101 591 67
leaf_count=34 27 20 804 52 146 2490 2326 20 145 456 30 101 591 67
internal_value=-2.11436e-09 -0.0439894 -0.0736582 0.293032 0.201446 -0.13785 0.0162053 0.60409 0.529597 0.127612 0.192648 0.530689 0.149207 0.502732
internal_weight=7309 6355 5647 954 737 3294 2353 217 197 602 708 135 621 87
internal_count=7309 6355 5647 954 737 3294 2353 217 197 602 708 135 621 87
is_linear=0
shrinkage=0.08


Tree=53
num_leaves=13
num_cat=0
split_feature=2 1 1 5 2 2 4 2 9 5 1 7
split_gain=12669.1 5922.41 4269.07 4105.75 2849.85 2101 1020.85 1238.6 962.583 759.017 441.399 221.493
threshold=442.50000000000006 -84.499999999999986 -84.499999999999986 28.700000000000006 31.500000000000004 1280.5000000000002 7.5000000000000009 19.500000000000004 3.9045454545454548 3.7500000000000004 -89.499999999999986 5.5000000000000009
decision_type=2 2 2 2 2 2 2 2 2 2 2 2
left_child=1 6 9 4 -3 11 7 -1 -7 -2 -11 -4
right_child=2 3 5 -5 -6 8 -8 -9 -10 10 -12 -13
leaf_value=1.2791166515009744 0.77029273605346671 0.40175803603231908 0.11689322147172751 1.2303343270041727 0.089396991461304712 -0.089179517061329969 0.2557764591217041 0.65325851038710714 -0.19754293585181518 0.5556898496701167 0.19932497363102125 -0.007592228491596905
leaf_weight=28 20 215 97 22 1432 2974 25 73 637 26 154 1606
leaf_count=28 20 215 97 22 1432 2974 25 73 637 26 154 1606
internal_value=1.24338e-11 0.184601 -0.0600942 0.144675 0.130173 -0.0737503 0.713473 0.826764 -0.108295 0.302749 0.2508 -0.000501748
internal_weight=7309 1795 5514 1669 1647 5314 126 101 3611 200 180 1703
internal_count=7309 1795 5514 1669 1647 5314 126 101 3611 200 180 1703
is_linear=0
shrinkage=0.08


Tree=54
num_leaves=14
num_cat=0
split_feature=2 0 0 1 1 5 0 2 0 5 4 1 2
split_gain=10723.1 5387.11 4989.47 4178.86 3136.12 2925.25 2539.3 2118.78 860.193 698.181 681.537 613.673 531.333
threshold=442.50000000000006 2.5000000000000004 2.5000000000000004 -84.499999999999986 -83.499999999999986 27.850000000000005 1.5000000000000002 31.500000000000004 1.5000000000000002 3.7500000000000004 13.500000000000002 -82.499999999999986 1345.5000000000002
decision_type=2 2 2 2 2 2 2 2 2 2 2 2 2
left_child=1 3 4 8 9 -5 -6 -3 -1 -2 -9 -4 -13
right_child=2 7 11 5 6 -7 -8 10 -10 -11 -12 12 -14
leaf_value=0.26343407276603914 0.65393218540010001 1.3538984280540831 0.52729826362044729 0.053016032871192602 -0.19502843276220813 0.42524770011901858 -0.061230881682390222 0.57493540847301483 0.73432542169094095 0.16832764639989617 0.12314833246744597 0.27994943532076749 0.098916255432305866
leaf_weight=36 21 21 27 1362 1236 150 3419 120 80 194 26 132 485
leaf_count=36 21 21 27 1362 1236 150 3419 120 80 194 26 132 485
internal_value=-1.11249e-10 0.169833 -0.0552867 0.125445 -0.08296 0.0899438 -0.0967569 0.602551 0.588187 0.215759 0.49448 0.153983 0.137646
internal_weight=7309 1795 5514 1628 4870 1512 4655 167 116 215 146 644 617
internal_count=7309 1795 5514 1628 4870 1512 4655 167 116 215 146 644 617
is_linear=0
shrinkage=0.08


Tree=55
num_leaves=15
num_cat=0
split_feature=2 0 1 2 5 0 1 2 2 5 2 2 0 2
split_gain=9298.39 5338.99 3912.54 3460.06 2693.02 2146.2 1633.39 1468.31 1433.86 1043.34 1036.94 861.879 685.197 667.601
threshold=116.50000000000001 1.5000000000000002 -82.499999999999986 1554.0000000000002 16.350000000000005 2.5000000000000004 -71.499999999999986 23.500000000000004 6.5000000000000009 3.7500000000000004 879.00000000000011 1448.0000000000002 1.5000000000000002 46.500000000000007
decision_type=2 2 2 2 2 2 2 2 2 2 2 2 2 2
left_child=4 6 10 -4 8 7 9 -6 -1 -2 -3 -8 -10 -7
right_child=1 2 3 -5 5 13 11 -9 12 -11 -12 -13 -14 -15
leaf_value=0.5904903319146898 0.47701103406793932 0.69955985876646909 0.066650347120382578 -0.07061392620038652 0.5955138259223014 1.2032698567708333 -0.13733511131542028 0.23534011632204055 -0.10933078596525103 -0.02456401533578053 0.25919466125887708 -0.26519097694967475 0.12963788241147994 0.59315658569335938
leaf_weight=36 34 44 2222 2495 99 24 849 270 107 121 154 560 272 22
leaf_count=36 34 44 2222 2495 99 24 849 270 107 121 154 560 272 22
internal_value=-9.24508e-10 -0.0322961 0.00866977 -0.00595393 0.252104 0.396206 -0.161035 0.331972 0.108002 0.0854589 0.357054 -0.188151 0.0621718 0.911477
internal_weight=7309 6479 4915 4717 830 415 1564 369 415 155 198 1409 379 46
internal_count=7309 6479 4915 4717 830 415 1564 369 415 155 198 1409 379 46
is_linear=0
shrinkage=0.08


Tree=56
num_leaves=14
num_cat=0
split_feature=6 0 8 0 8 1 5 4 1 0 9 8 1
split_gain=9378.88 6633.48 5109.65 2882.59 2571.27 1854.04 944.656 766.673 560.383 500.569 366.318 254.385 246.772
threshold=19.250000000000004 2.5000000000000004 7.1163938146744004 1.5000000000000002 5.4445775410940529 -79.499999999999986 21.300000000000001 13.500000000000002 -83.499999999999986 1.5000000000000002 0.65476190476190488 5.929500718867069 -85.499999999999986
decision_type=2 2 2 2 2 2 2 2 2 2 2 2 2
left_child=6 2 3 -2 7 -4 9 -3 -6 11 -11 -1 -8
right_child=1 4 5 -5 8 -7 12 -9 -10 10 -12 -13 -14
leaf_value=0.018348345851898193 -0.087016993051809183 0.67862820753029407 0.10194684970196541 0.082160246949317964 0.53193230048469875 -0.13045179204773963 1.0265301537513734 0.19525172293186188 0.13013423117990683 0.35828888423859129 0.62603937657440412 0.39134374802762817 0.66609500828289214
leaf_weight=25 926 84 237 2121 23 3010 20 28 651 63 68 22 31
leaf_count=25 926 84 237 2121 23 3010 20 28 651 63 68 22 31
internal_value=-8.7304e-11 -0.0162981 -0.0436629 0.0307464 0.202829 -0.113489 0.50389 0.557784 0.143845 0.416917 0.497274 0.192942 0.807442
internal_weight=7309 7080 6294 3047 786 3247 229 112 674 178 131 47 51
internal_count=7309 7080 6294 3047 786 3247 229 112 674 178 131 47 51
is_linear=0
shrinkage=0.08


Tree=57
num_leaves=14
num_cat=0
split_feature=6 0 2 0 2 1 0 2 2 7 6 6 1
split_gain=7938.28 5614.58 4324.81 2439.83 2230.02 1569.26 679.187 740.564 592.447 468.246 430.866 186.287 86.6223
threshold=19.250000000000004 2.5000000000000004 1231.0000000000002 1.5000000000000002 375.00000000000006 -79.499999999999986 1.5000000000000002 19.500000000000004 39.500000000000007 8.5000000000000018 80.950000000000017 13.950000000000001 -78.499999999999986
decision_type=2 2 2 2 2 2 2 2 2 2 2 2 2
left_child=6 2 3 -2 8 -4 11 -8 -3 -9 -6 12 -1
right_child=1 4 5 -5 10 -7 7 9 -10 -11 -12 -13 -14
leaf_value=0.25928830424323679 -0.080055634434099576 0.87419293737411496 0.093791101479014774 0.075587427103782204 0.47889715655218984 -0.12001564780156132 0.93254995028177901 0.71347023512187757 0.40524043552398681 0.38357612574100491 0.11044193561615483 0.42459097994410472 0.026654862999206497
leaf_weight=20 926 20 237 2121 21 3010 27 38 125 100 620 23 21
leaf_count=20 926 20 237 2121 21 3010 27 38 125 100 620 23 21
internal_value=1.42218e-10 -0.0149943 -0.0401699 0.0282866 0.186603 -0.10441 0.463578 0.549384 0.469924 0.474417 0.122513 0.242361 0.140135
internal_weight=7309 7080 6294 3047 786 3247 229 165 145 138 641 64 41
internal_count=7309 7080 6294 3047 786 3247 229 165 145 138 641 64 41
is_linear=0
shrinkage=0.08


Tree=58
num_leaves=13
num_cat=0
split_feature=5 1 0 0 5 8 8 8 0 7 0 0
split_gain=7062.3 4908.55 4063.04 2512.68 2218.93 1431.85 1143.62 1078.55 1053.09 606.824 546.067 503.771
threshold=17.750000000000004 -82.499999999999986 2.5000000000000004 1.5000000000000002 29.250000000000004 3.4811217321331038 6.8029500104663247 6.5532206455302013 1.5000000000000002 9.5000000000000018 1.5000000000000002 1.5000000000000002
decision_type=2 2 2 2 2 2 2 2 2 2 2 2
left_child=1 6 3 -3 5 9 10 -4 -7 -2 -1 -8
right_child=4 2 7 -5 -6 8 11 -9 -10 -11 -12 -13
leaf_value=0.19810616906808348 0.9561893224716187 -0.14319969285291431 0.32845874107336698 -0.024654398010363489 1.1222712347724222 -0.022650812828397177 -0.055883499910434092 0.092509815623569816 0.31707530866533062 0.44235881002325761 0.51703056844680206 0.21788091845418278
leaf_weight=49 24 1563 158 4272 22 83 60 576 197 38 115 152
leaf_count=49 24 1563 158 4272 22 83 60 576 197 38 115 152
internal_value=-2.80062e-10 -0.0180032 -0.0340939 -0.0564087 0.343494 0.293398 0.263113 0.1433 0.216371 0.641261 0.421742 0.1404
internal_weight=7309 6945 6569 5835 364 342 376 734 280 62 164 212
internal_count=7309 6945 6569 5835 364 342 376 734 280 62 164 212
is_linear=0
shrinkage=0.08


Tree=59
num_leaves=15
num_cat=0
split_feature=6 5 2 1 2 6 6 2 2 1 2 5 9 6
split_gain=6288.05 4625.39 2761.33 2788.79 1974.01 1654.82 2558.38 5675.8 3253.02 1356.56 1190.24 675.774 457.012 422.939
threshold=53.45000000000001 1.7500000000000002 220.50000000000003 -77.499999999999986 1631.5000000000002 19.250000000000004 29.950000000000003 366.50000000000006 588.50000000000011 -85.499999999999986 13.500000000000002 28.250000000000004 0.65476190476190488 88.050000000000011
decision_type=2 2 2 2 2 2 2 2 2 2 2 2 2 2
left_child=5 4 9 -4 10 11 8 -8 -7 -3 -2 12 -1 -6
right_child=1 2 3 -5 13 6 7 -9 -10 -11 -12 -13 -14 -15
leaf_value=0.20385605810210108 0.37398843241672891 0.88896779877798893 0.13388729768790555 -0.20176455381439953 -0.13986615182942902 -0.35180283986844801 1.1918598644550031 0.14056612338745994 0.40172254884243008 0.23243206823762305 -0.015934318772432718 0.71493872862595775 0.45515411521087989 -0.074785896725046694
leaf_weight=80 51 21 445 246 1208 110 39 209 55 493 2846 39 110 1357
leaf_count=80 51 21 445 246 1208 110 39 209 55 493 2846 39 110 1357
internal_value=-5.13116e-10 -0.0230261 0.118841 0.0143933 -0.0543241 0.23912 0.14348 0.305891 -0.100628 0.259256 -0.00906996 0.411607 0.349344 -0.105436
internal_weight=7309 6667 1205 691 5462 642 413 248 165 514 2897 229 190 2565
internal_count=7309 6667 1205 691 5462 642 413 248 165 514 2897 229 190 2565
is_linear=0
shrinkage=0.08


Tree=60
num_leaves=12
num_cat=0
split_feature=5 6 1 2 5 2 6 6 2 2 1
split_gain=5556.4 4091.49 3186.66 2146.14 1835.18 1141.91 796.47 651.955 346.288 328.686 293.209
threshold=17.750000000000004 20.450000000000003 -86.499999999999986 1338.0000000000002 29.250000000000004 31.500000000000004 18.100000000000005 99.15000000000002 298.50000000000006 230.50000000000003 -84.499999999999986
decision_type=2 2 2 2 2 2 2 2 2 2 2
left_child=1 6 7 -4 5 10 8 -3 -1 -7 -2
right_child=4 2 3 -5 -6 9 -8 -9 -10 -11 -12
leaf_value=0.16590693342097013 0.8043591044165872 0.25966308051142201 0.013443293065161812 -0.078000890753479143 1.0129191466624088 0.23655686218804176 0.73086101182301844 0.73659812632061195 0.40365064391964361 0.027802601636898135 0.44075157189369202
leaf_weight=81 22 145 3107 3485 22 218 30 21 76 62 40
leaf_count=81 22 145 3107 3485 22 218 30 21 76 62 40
internal_value=-3.88272e-10 -0.0159688 -0.0261831 -0.0349006 0.30468 0.25912 0.353164 0.319998 0.280993 0.190333 0.569774
internal_weight=7309 6945 6758 6592 364 342 187 166 157 280 62
internal_count=7309 6945 6758 6592 364 342 187 166 157 280 62
is_linear=0
shrinkage=0.08


Tree=61
num_leaves=15
num_cat=0
split_feature=2 0 6 1 0 2 0 1 5 6 6 6 9 6
split_gain=4981.53 4045.63 3003.58 2515.57 1305.29 1089.53 768.416 661.711 540.596 324.495 281.696 607.638 203.145 141.591
threshold=35.500000000000007 2.5000000000000004 53.45000000000001 -85.499999999999986 1.5000000000000002 624.00000000000011 2.5000000000000004 -45.499999999999993 21.950000000000003 80.950000000000017 43.400000000000013 18.100000000000005 1.966666666666667 92.350000000000009
decision_type=2 2 2 2 2 2 2 2 2 2 2 2 2 2
left_child=4 2 7 -4 10 12 8 -2 -6 -7 11 -1 -3 -12
right_child=1 5 3 -5 6 9 -8 -9 -10 -11 13 -13 -14 -15
leaf_value=0.16581193574837275 0.18541368352555335 0.38380645336526814 0.25958710017947506 -0.060188727812567358 0.29195498432375883 0.36483917546272282 0.84399554967880253 -0.28542476367950437 0.60496513853902401 0.095136515251699638 0.34888760404153302 -0.41153784823417666 0.16451558982624728 0.067911028539141022
leaf_weight=28 426 132 162 5598 152 30 24 20 46 591 22 20 34 24
leaf_count=28 426 132 162 5598 152 30 24 20 46 591 22 20 34 24
internal_value=-1.21789e-11 -0.0140396 -0.0357083 -0.051195 0.310692 0.156832 0.416493 0.1643 0.364675 0.108166 0.0608231 -0.0747505 0.338891 0.202291
internal_weight=7309 6993 6206 5760 316 787 222 446 198 621 94 48 166 46
internal_count=7309 6993 6206 5760 316 787 222 446 198 621 94 48 166 46
is_linear=0
shrinkage=0.08


Tree=62
num_leaves=13
num_cat=0
split_feature=5 0 6 1 5 0 1 6 8 6 6 5
split_gain=4401.1 3737.95 3204.38 2524.57 1529.41 1082.96 912.576 789.286 1099.74 1011.02 733.827 233.785
threshold=17.750000000000004 1.5000000000000002 62.050000000000004 -87.499999999999986 29.250000000000004 1.5000000000000002 -58.499999999999993 51.150000000000006 7.2786267990517262 49.750000000000007 19.250000000000004 23.600000000000005
decision_type=2 2 2 2 2 2 2 2 2 2 2 2
left_child=1 7 6 -4 5 11 -3 9 -9 -1 -7 -2
right_child=4 2 3 -5 -6 10 -8 8 -10 -11 -12 -13
leaf_value=-0.12365656746400369 0.19449558192683802 0.11515003681947024 0.44545872065756059 -0.0048754641604327742 0.91771143718199299 0.6609272992270333 0.37883470787349477 -0.086514158321989512 -0.23019864294139797 0.24675080741324076 0.26457491777946307 -0.068827125925413318
leaf_weight=111 31 156 81 4854 22 35 182 946 533 82 205 71
leaf_count=111 31 156 81 4854 22 35 182 946 533 82 205 71
internal_value=-6.82841e-10 -0.014212 0.0188371 0.00251604 0.271161 0.22957 0.257134 -0.118439 -0.138295 0.0337186 0.322376 0.0112023
internal_weight=7309 6945 5273 4935 364 342 338 1672 1479 193 240 102
internal_count=7309 6945 5273 4935 364 342 338 1672 1479 193 240 102
is_linear=0
shrinkage=0.08


Tree=63
num_leaves=13
num_cat=0
split_feature=8 0 6 1 0 8 9 9 7 1 5 6
split_gain=4039.8 3251.99 2192.13 2089.82 1177.66 907.489 739.751 1058.78 683.959 618.79 263.757 231.995
threshold=3.4811217321331038 2.5000000000000004 60.050000000000004 -79.499999999999986 2.5000000000000004 7.2052638433075193 0.82085561497326209 0.69615384615384623 13.500000000000002 -72.499999999999986 13.800000000000002 80.950000000000017
decision_type=2 2 2 2 2 2 2 2 2 2 2 2
left_child=4 2 8 -4 6 10 7 -1 -2 -8 -3 -7
right_child=1 5 3 -5 -6 11 9 -9 -10 -11 -12 -13
leaf_value=0.26648688852392288 0.16579426422368648 0.21007586204088649 0.14016198680863354 -0.057377743230115352 0.87607825233822778 0.31003293200181081 -0.26936630614675006 0.83851530869801838 -0.14406049405827243 0.20566601468457116 0.38593663800407102 0.064702583503179034
leaf_weight=151 430 208 366 5396 21 26 26 24 51 54 74 482
leaf_count=151 430 208 366 5396 21 26 26 24 51 54 74 482
internal_value=-4.34126e-10 -0.0117822 -0.0311335 -0.0448301 0.300232 0.141143 0.252809 0.344937 0.132941 0.0512805 0.256224 0.0772589
internal_weight=7309 7033 6243 5762 276 790 255 175 481 80 282 508
internal_count=7309 7033 6243 5762 276 790 255 175 481 80 282 508
is_linear=0
shrinkage=0.08


Tree=64
num_leaves=13
num_cat=0
split_feature=5 0 6 2 5 0 2 6 2 6 6 5
split_gain=3567.33 3098.81 2351.3 1894.86 1273.78 864.975 610.951 793.886 767.899 572.739 457.721 201.81
threshold=17.750000000000004 1.5000000000000002 62.050000000000004 1554.0000000000002 29.250000000000004 1.5000000000000002 1325.5000000000002 51.150000000000006 290.50000000000006 19.250000000000004 20.450000000000003 23.600000000000005
decision_type=2 2 2 2 2 2 2 2 2 2 2 2
left_child=1 6 10 -4 5 11 8 -8 -1 -7 -3 -2
right_child=4 2 3 -5 -6 9 7 -9 -10 -11 -12 -13
leaf_value=-0.17338924708318515 0.18131288828388339 0.33079751171696353 0.05328042771853659 -0.045866247212306817 0.83417781331322416 0.5882061439582279 0.035163406567140058 -0.19812726281800669 -0.017174292382206028 0.23804904614279909 0.14218230757216105 -0.063340724027702508
leaf_weight=291 31 142 2448 2487 22 35 110 617 654 205 196 71
leaf_count=291 31 142 2448 2487 22 35 110 617 654 205 196 71
internal_value=-8.00114e-10 -0.0127952 0.0172961 0.00331533 0.244128 0.206172 -0.107694 -0.162829 -0.0652786 0.289114 0.221423 0.0110148
internal_weight=7309 6945 5273 4935 364 342 1672 727 945 240 338 102
internal_count=7309 6945 5273 4935 364 342 1672 727 945 240 338 102
is_linear=0
shrinkage=0.08


Tree=65
num_leaves=13
num_cat=0
split_feature=2 1 2 6 6 6 9 9 1 1 1 2
split_gain=3216.64 2025.5 1620.57 1159.16 832.7 813.905 585.415 737.949 690.797 579.445 445.812 114.838
threshold=31.500000000000004 -85.499999999999986 1134.5000000000002 22.400000000000002 99.65000000000002 99.250000000000014 0.82085561497326209 0.69615384615384623 -72.499999999999986 -84.499999999999986 -89.499999999999986 16.500000000000004
decision_type=2 2 2 2 2 2 2 2 2 2 2 2
left_child=6 5 4 -4 -3 10 7 9 -8 -1 -2 -10
right_child=1 2 3 -5 -6 -7 8 -9 11 -11 -12 -13
leaf_value=0.53818248050553463 0.43523824897905194 0.037596786280633364 0.28280993069135224 -0.057895956580498266 -0.13772921649829761 0.71635669958591464 -0.23814943181143869 0.73563973501876545 0.35878562446435291 0.19178324910820041 0.12382678112628297 0.14252079400149259
leaf_weight=42 36 2758 65 3808 185 20 27 27 30 117 161 33
leaf_count=42 36 2758 65 3808 185 20 27 27 30 117 161 33
internal_value=-7.5086e-10 -0.0105135 -0.0181739 -0.0521779 0.0265756 0.230101 0.267903 0.348949 0.100408 0.283285 0.180734 0.245504
internal_weight=7309 7033 6816 3873 2943 217 276 186 90 159 197 63
internal_count=7309 7033 6816 3873 2943 217 276 186 90 159 197 63
is_linear=0
shrinkage=0.08


Tree=66
num_leaves=13
num_cat=0
split_feature=0 1 2 6 0 0 2 2 3 1 4 9
split_gain=3051.59 2201.96 1940.44 1403.41 1271.77 898.802 754.8 354.357 211.739 194.408 131.401 123.868
threshold=2.5000000000000004 -88.499999999999986 1231.0000000000002 22.400000000000002 1.5000000000000002 1.5000000000000002 1345.5000000000002 879.00000000000011 1.0000000180025095e-35 -82.499999999999986 11.500000000000002 0.46410256410256417
decision_type=2 2 2 2 2 2 2 2 2 2 2 2
left_child=1 7 4 -2 -3 -4 8 11 -5 -8 -9 -1
right_child=3 2 5 6 -6 -7 9 10 -10 -11 -12 -13
leaf_value=0.63980211651843522 0.71340555155718777 -0.056113682604532901 -0.14135432583408933 0.18228255691328599 0.054405490251342253 -0.043456154909498473 0.29463032152341762 0.048811027663094662 0.32894943239841057 0.056491389021653085 0.32026052639484404 0.39119845694509048
leaf_weight=23 27 958 794 191 2189 2459 23 21 94 476 25 29
leaf_count=23 27 958 794 191 2189 2459 23 21 94 476 25 29
internal_value=3.74843e-10 -0.0182619 -0.0240246 0.14632 0.0207616 -0.0673514 0.12679 0.358079 0.230657 0.0674677 0.196338 0.501158
internal_weight=7309 6498 6400 811 3147 3253 784 98 285 499 46 52
internal_count=7309 6498 6400 811 3147 3253 784 98 285 499 46 52
is_linear=0
shrinkage=0.08


Tree=67
num_leaves=13
num_cat=0
split_feature=5 0 1 0 5 1 0 5 7 2 2 5
split_gain=2681.58 2341.64 1475.3 1258.45 1067.92 859.933 651.169 524.745 413.152 338.095 303.703 172.729
threshold=17.750000000000004 2.5000000000000004 -81.499999999999986 1.5000000000000002 29.250000000000004 -80.499999999999986 1.5000000000000002 3.7500000000000004 9.5000000000000018 1524.0000000000002 1601.5000000000002 24.250000000000004
decision_type=2 2 2 2 2 2 2 2 2 2 2 2
left_child=1 2 7 -4 6 10 11 -1 -8 -7 -3 -2
right_child=4 5 3 -5 -6 9 8 -9 -10 -11 -12 -13
leaf_value=0.50532264536077331 0.15480618805569762 0.69191345739364618 -0.099207773916447375 -0.014972875674637063 0.75193079525774187 0.17040467039249202 0.37968519365850917 0.10262320081632131 0.16464980278521366 0.057453083118387295 0.27366337432861332 -0.066034110070151447
leaf_weight=22 34 20 1549 4248 22 269 94 353 146 459 25 68
leaf_count=22 34 20 1549 4248 22 269 94 353 146 459 25 68
internal_value=-9.25981e-10 -0.0110936 -0.0275331 -0.037481 0.211662 0.120168 0.176908 0.126248 0.248872 0.0991893 0.459552 0.00757932
internal_weight=7309 6945 6172 5797 364 773 342 375 240 728 45 102
internal_count=7309 6945 6172 5797 364 773 342 375 240 728 45 102
is_linear=0
shrinkage=0.08


Tree=68
num_leaves=13
num_cat=0
split_feature=2 0 5 1 0 9 9 1 2 2 2 2
split_gain=2450.58 1987.62 1427.63 1655.15 723.696 470.885 711.9 524.721 405.288 625.362 239.955 185.507
threshold=31.500000000000004 1.5000000000000002 19.550000000000001 -87.499999999999986 2.5000000000000004 0.83974358974358987 0.69615384615384623 -72.499999999999986 1384.5000000000002 290.50000000000006 3803.0000000000005 46.500000000000007
decision_type=2 2 2 2 2 2 2 2 2 2 2 2
left_child=4 8 3 -3 5 6 -1 -7 9 -2 -10 -4
right_child=1 2 11 -5 -6 7 -8 -9 10 -11 -12 -13
leaf_value=0.20225288387758053 -0.14587640467173293 0.34878077476547004 0.061123588698250908 0.0007592546942652487 0.68524899777911952 -0.27834440770248575 0.65547479254695096 0.17122735363189823 -0.16544912132633827 -0.010499506686784944 -0.064104558465717082 0.26456479563278223
leaf_weight=151 317 89 35 5051 21 24 26 54 458 702 222 159
leaf_count=151 317 89 35 5051 21 24 26 54 458 702 222 159
internal_value=-9.03876e-11 -0.00917656 0.0148259 0.00678531 0.233836 0.196661 0.268828 0.0328976 -0.0845323 -0.0526138 -0.132363 0.227861
internal_weight=7309 7033 5334 5140 276 255 177 78 1699 1019 680 194
internal_count=7309 7033 5334 5140 276 255 177 78 1699 1019 680 194
is_linear=0
shrinkage=0.08


Tree=69
num_leaves=13
num_cat=0
split_feature=6 0 8 6 6 8 4 8 6 7 1 1
split_gain=2146.11 2025.34 1297.87 2250.19 867.206 608.426 445.086 346.101 378.477 656.294 240.666 137.092
threshold=19.250000000000004 2.5000000000000004 7.4330751740416448 29.950000000000003 60.050000000000004 5.4445775410940529 13.500000000000002 2.8617925509761908 15.250000000000002 10.500000000000002 -80.499999999999986 -84.499999999999986
decision_type=2 2 2 2 2 2 2 2 2 2 2 2
left_child=7 2 3 -2 -4 6 -3 -1 11 -10 -7 -9
right_child=1 5 4 -5 -6 10 -8 8 9 -11 -12 -13
leaf_value=0.48072548456264264 -0.32875045607166903 0.37802397608047444 0.099757776973677464 0.017730715869107374 -0.081177082292253747 0.29871352583169936 0.0097234642505645754 0.27119066184057911 0.62183335181205501 0.064603944619496659 0.073919438386446212 0.08678521457676576
leaf_weight=33 124 84 183 3683 2304 32 28 34 31 24 642 107
leaf_count=33 124 84 183 3683 2304 32 28 34 31 24 642 107
internal_value=-1.54842e-10 -0.0077963 -0.0229169 0.00644528 -0.0678634 0.113284 0.285949 0.241038 0.200683 0.378679 0.0845922 0.131252
internal_weight=7309 7080 6294 3807 2487 786 112 229 196 55 674 141
internal_count=7309 7080 6294 3807 2487 786 112 229 196 55 674 141
is_linear=0
shrinkage=0.08


Tree=70
num_leaves=13
num_cat=0
split_feature=2 0 1 6 6 0 6 2 1 9 9 6
split_gain=1976.73 1683.74 1217.39 1176.31 640.436 545.372 453.585 948.005 567.374 403.011 697.509 446.612
threshold=31.500000000000004 1.5000000000000002 -80.499999999999986 62.050000000000004 99.15000000000002 2.5000000000000004 51.150000000000006 165.50000000000003 -70.499999999999986 0.82085561497326209 0.69615384615384623 43.400000000000013
decision_type=2 2 2 2 2 2 2 2 2 2 2 2
left_child=5 6 4 -4 -3 9 7 -2 -8 10 -1 -11
right_child=1 2 3 -5 -6 -7 8 -9 -10 11 -12 -13
leaf_value=0.18206843949311616 -0.32279663983318541 0.13686525712410608 0.16768233017108888 -0.0048871180411489343 0.6047124404907227 0.60188537796338404 0.054946669424442866 0.13716447035471599 -0.10796414234334209 -0.27791647076606751 0.64635902789731814 0.14540934508216791
leaf_weight=151 36 294 267 4753 20 21 152 141 1370 22 24 58
leaf_count=151 36 294 267 4753 20 21 152 141 1370 22 24 58
internal_value=-2.50828e-10 -0.00824174 0.0138499 0.00429138 0.166664 0.210015 -0.0775983 0.0436131 -0.0916945 0.177743 0.245743 0.0289947
internal_weight=7309 7033 5334 5020 314 276 1699 177 1522 255 175 80
internal_count=7309 7033 5334 5020 314 276 1699 177 1522 255 175 80
is_linear=0
shrinkage=0.08


Tree=71
num_leaves=12
num_cat=0
split_feature=5 0 6 6 6 5 6 2 0 2 6
split_gain=1945.8 1582.41 1207.78 1029.66 911.815 893.162 852.897 451.616 370.827 292.262 53.4652
threshold=17.750000000000004 2.5000000000000004 60.050000000000004 93.65000000000002 22.400000000000002 29.250000000000004 29.950000000000003 23.500000000000004 1.5000000000000002 1345.5000000000002 19.250000000000004
decision_type=2 2 2 2 2 2 2 2 2 2 2
left_child=1 2 6 -4 -3 7 -1 10 -9 -6 -2
right_child=5 4 3 -5 9 -7 -8 8 -10 -11 -12
leaf_value=-0.0056057225912084611 0.4779122341246832 0.60610117045315837 -0.071424343923213049 -0.0028560957151041902 0.15380994033718864 0.6743898018381812 0.2032256024452995 -0.023925475084714678 0.17120585098002966 0.048117171807852924 0.30312222957611085
leaf_weight=257 21 22 2533 3138 252 22 244 89 208 499 24
leaf_count=257 21 22 2533 3138 252 22 244 89 208 499 24
internal_value=1.97949e-12 -0.00944984 -0.022964 -0.0334827 0.0984538 0.1803 0.0961006 0.148516 0.112732 0.0835827 0.384691
internal_weight=7309 6945 6172 5671 773 364 501 342 297 751 45
internal_count=7309 6945 6172 5671 773 364 501 342 297 751 45
is_linear=0
shrinkage=0.08


Tree=72
num_leaves=11
num_cat=0
split_feature=2 1 5 2 5 2 2 1 4 9
split_gain=1659.66 1278.04 1169.57 868.293 497.377 253.597 181.723 176.891 110.989 50.0914
threshold=13.500000000000002 -88.499999999999986 29.250000000000004 1690.0000000000002 15.350000000000003 6.5000000000000009 1554.0000000000002 -83.499999999999986 11.500000000000002 0.46410256410256417
decision_type=2 2 2 2 2 2 2 2 2 2
left_child=4 6 3 -3 5 -1 9 -6 -8 -2
right_child=1 2 -4 -5 7 -7 8 -9 -10 -11
leaf_value=0.29425447719437736 0.45529618769884111 0.013015151339718131 0.60213116192817684 -0.043896295006925858 0.67085677601042248 -0.035587724905747631 0.018755680720011395 0.36598386801522353 0.27885281131381084 0.30608880369199648
leaf_weight=35 24 4152 20 2924 21 26 21 29 21 36
leaf_count=35 24 4152 20 2924 21 26 21 29 21 36
internal_value=-1.23939e-10 -0.00473397 -0.00877554 -0.0105022 0.306983 0.153666 0.276432 0.49403 0.148804 0.365772
internal_weight=7309 7198 7096 7076 111 61 102 50 42 60
internal_count=7309 7198 7096 7076 111 61 102 50 42 60
is_linear=0
shrinkage=0.08


Tree=73
num_leaves=15
num_cat=0
split_feature=0 2 2 2 2 6 1 2 6 6 2 2 2 3
split_gain=1595.18 1613.65 1662.65 1733.62 1337.18 794.467 632.362 364.716 390.39 447.085 353.374 875.204 792.778 260.753
threshold=1.5000000000000002 442.50000000000006 298.50000000000006 351.50000000000006 171.50000000000003 62.050000000000004 -81.499999999999986 1325.5000000000002 51.150000000000006 49.750000000000007 290.50000000000006 393.00000000000006 230.50000000000003 1.0000000180025095e-35
decision_type=2 2 2 2 2 2 2 2 2 2 2 2 2 2
left_child=7 2 4 -4 -2 -3 -7 10 9 -9 12 -12 -1 -10
right_child=1 5 3 -5 -6 6 -8 8 13 -11 11 -13 -14 -15
